<?xml version="1.0"?>
<opencv_storage>
<cascade>
  <stageType>BOOST</stageType>
  <featureType>HAAR</featureType>
  <height>32</height>
  <width>50</width>
  <stageParams>
    <boostType>GAB</boostType>
    <minHitRate>9.9900001287460327e-01</minHitRate>
    <maxFalseAlarm>2.0000000298023224e-01</maxFalseAlarm>
    <weightTrimRate>9.4999999999999996e-01</weightTrimRate>
    <maxDepth>1</maxDepth>
    <maxWeakCount>100</maxWeakCount></stageParams>
  <featureParams>
    <maxCatCount>0</maxCatCount>
    <featSize>1</featSize>
    <mode>ALL</mode></featureParams>
  <stageNum>20</stageNum>
  <stages>
    <!-- stage 0 -->
    <_>
      <maxWeakCount>12</maxWeakCount>
      <stageThreshold>-1.2028155326843262e+00</stageThreshold>
      <weakClassifiers>
        <_>
          <internalNodes>
            0 -1 294 -6.4332038164138794e-02</internalNodes>
          <leafValues>
            7.8609627485275269e-01 -5.1277011632919312e-01</leafValues></_>
        <_>
          <internalNodes>
            0 -1 545 -2.8851715615019202e-04</internalNodes>
          <leafValues>
            -7.9054516553878784e-01 3.1467923521995544e-01</leafValues></_>
        <_>
          <internalNodes>
            0 -1 546 1.2029380013700575e-04</internalNodes>
          <leafValues>
            2.4366794526576996e-01 -7.9246056079864502e-01</leafValues></_>
        <_>
          <internalNodes>
            0 -1 38 -8.6672436445951462e-03</internalNodes>
          <leafValues>
            6.1359280347824097e-01 -3.6905744671821594e-01</leafValues></_>
        <_>
          <internalNodes>
            0 -1 168 -2.9588345438241959e-02</internalNodes>
          <leafValues>
            6.4357173442840576e-01 -3.6767369508743286e-01</leafValues></_>
        <_>
          <internalNodes>
            0 -1 382 4.4004749506711960e-02</internalNodes>
          <leafValues>
            -4.7263485193252563e-01 5.2106648683547974e-01</leafValues></_>
        <_>
          <internalNodes>
            0 -1 245 -1.0323547758162022e-04</internalNodes>
          <leafValues>
            -7.4374014139175415e-01 3.4433409571647644e-01</leafValues></_>
        <_>
          <internalNodes>
            0 -1 159 -6.2449998222291470e-03</internalNodes>
          <leafValues>
            5.4983234405517578e-01 -4.1837525367736816e-01</leafValues></_>
        <_>
          <internalNodes>
            0 -1 594 -3.6261032801121473e-04</internalNodes>
          <leafValues>
            -8.9362418651580811e-01 2.3149727284908295e-01</leafValues></_>
        <_>
          <internalNodes>
            0 -1 51 1.1294012889266014e-02</internalNodes>
          <leafValues>
            -3.0812332034111023e-01 6.8445360660552979e-01</leafValues></_>
        <_>
          <internalNodes>
            0 -1 53 4.7096636990318075e-05</internalNodes>
          <leafValues>
            2.6605603098869324e-01 -7.0113831758499146e-01</leafValues></_>
        <_>
          <internalNodes>
            0 -1 104 5.2013294771313667e-03</internalNodes>
          <leafValues>
            -2.9728668928146362e-01 6.5634500980377197e-01</leafValues></_></weakClassifiers></_>
    <!-- stage 1 -->
    <_>
      <maxWeakCount>19</maxWeakCount>
      <stageThreshold>-8.5617333650588989e-01</stageThreshold>
      <weakClassifiers>
        <_>
          <internalNodes>
            0 -1 252 -6.1991669237613678e-02</internalNodes>
          <leafValues>
            4.5026177167892456e-01 -5.3594774007797241e-01</leafValues></_>
        <_>
          <internalNodes>
            0 -1 347 7.3439623229205608e-03</internalNodes>
          <leafValues>
            -2.3893404006958008e-01 6.8792408704757690e-01</leafValues></_>
        <_>
          <internalNodes>
            0 -1 44 -1.4699649764224887e-03</internalNodes>
          <leafValues>
            4.3091487884521484e-01 -3.9930418133735657e-01</leafValues></_>
        <_>
          <internalNodes>
            0 -1 62 3.5390406847000122e-02</internalNodes>
          <leafValues>
            -2.5664117932319641e-01 6.2944477796554565e-01</leafValues></_>
        <_>
          <internalNodes>
            0 -1 603 5.9252222999930382e-03</internalNodes>
          <leafValues>
            -2.4036455154418945e-01 5.3765356540679932e-01</leafValues></_>
        <_>
          <internalNodes>
            0 -1 23 -2.0100683905184269e-03</internalNodes>
          <leafValues>
            4.0048089623451233e-01 -3.7019026279449463e-01</leafValues></_>
        <_>
          <internalNodes>
            0 -1 593 1.4435347111430019e-04</internalNodes>
          <leafValues>
            2.6192367076873779e-01 -6.6112506389617920e-01</leafValues></_>
        <_>
          <internalNodes>
            0 -1 596 -1.9051705021411180e-04</internalNodes>
          <leafValues>
            -7.6792633533477783e-01 1.6700372099876404e-01</leafValues></_>
        <_>
          <internalNodes>
            0 -1 378 -9.7570597426965833e-04</internalNodes>
          <leafValues>
            3.0080741643905640e-01 -4.8489838838577271e-01</leafValues></_>
        <_>
          <internalNodes>
            0 -1 608 4.9662376113701612e-05</internalNodes>
          <leafValues>
            2.4043871462345123e-01 -6.7073220014572144e-01</leafValues></_>
        <_>
          <internalNodes>
            0 -1 644 2.1983531769365072e-04</internalNodes>
          <leafValues>
            -4.5262274146080017e-01 2.7527657151222229e-01</leafValues></_>
        <_>
          <internalNodes>
            0 -1 185 -1.0512801236473024e-04</internalNodes>
          <leafValues>
            -7.6725888252258301e-01 1.8561145663261414e-01</leafValues></_>
        <_>
          <internalNodes>
            0 -1 477 -5.0112167373299599e-03</internalNodes>
          <leafValues>
            4.7219109535217285e-01 -2.9774418473243713e-01</leafValues></_>
        <_>
          <internalNodes>
            0 -1 57 9.8144169896841049e-04</internalNodes>
          <leafValues>
            -3.6186686158180237e-01 3.5142791271209717e-01</leafValues></_>
        <_>
          <internalNodes>
            0 -1 565 3.7695426726713777e-04</internalNodes>
          <leafValues>
            1.8872745335102081e-01 -7.5266164541244507e-01</leafValues></_>
        <_>
          <internalNodes>
            0 -1 166 -7.8110746107995510e-04</internalNodes>
          <leafValues>
            3.2580515742301941e-01 -3.9026284217834473e-01</leafValues></_>
        <_>
          <internalNodes>
            0 -1 107 -8.6919963359832764e-03</internalNodes>
          <leafValues>
            6.5171563625335693e-01 -1.9798661768436432e-01</leafValues></_>
        <_>
          <internalNodes>
            0 -1 484 -3.2510299934074283e-04</internalNodes>
          <leafValues>
            -8.9144688844680786e-01 1.7521177232265472e-01</leafValues></_>
        <_>
          <internalNodes>
            0 -1 10 4.1135838255286217e-03</internalNodes>
          <leafValues>
            -2.1915210783481598e-01 7.4713218212127686e-01</leafValues></_></weakClassifiers></_>
    <!-- stage 2 -->
    <_>
      <maxWeakCount>16</maxWeakCount>
      <stageThreshold>-7.7594697475433350e-01</stageThreshold>
      <weakClassifiers>
        <_>
          <internalNodes>
            0 -1 395 3.8603721186518669e-03</internalNodes>
          <leafValues>
            -1.1716621369123459e-01 7.9166668653488159e-01</leafValues></_>
        <_>
          <internalNodes>
            0 -1 365 -1.4783318620175123e-03</internalNodes>
          <leafValues>
            7.3361569643020630e-01 -2.0728506147861481e-01</leafValues></_>
        <_>
          <internalNodes>
            0 -1 169 -5.0569809973239899e-03</internalNodes>
          <leafValues>
            7.7364885807037354e-01 -2.4047344923019409e-01</leafValues></_>
        <_>
          <internalNodes>
            0 -1 426 5.9008160606026649e-03</internalNodes>
          <leafValues>
            -3.9200976490974426e-01 4.2547106742858887e-01</leafValues></_>
        <_>
          <internalNodes>
            0 -1 467 -8.1411898136138916e-03</internalNodes>
          <leafValues>
            4.3571740388870239e-01 -3.6038979887962341e-01</leafValues></_>
        <_>
          <internalNodes>
            0 -1 173 -2.8186140116304159e-03</internalNodes>
          <leafValues>
            5.1073294878005981e-01 -3.0546021461486816e-01</leafValues></_>
        <_>
          <internalNodes>
            0 -1 56 2.2215652279555798e-03</internalNodes>
          <leafValues>
            -2.8731822967529297e-01 4.6131789684295654e-01</leafValues></_>
        <_>
          <internalNodes>
            0 -1 627 -3.8402016798499972e-05</internalNodes>
          <leafValues>
            -5.9725105762481689e-01 2.6575264334678650e-01</leafValues></_>
        <_>
          <internalNodes>
            0 -1 131 1.0397650767117739e-03</internalNodes>
          <leafValues>
            -2.7681964635848999e-01 6.2271064519882202e-01</leafValues></_>
        <_>
          <internalNodes>
            0 -1 29 -4.6515283174812794e-03</internalNodes>
          <leafValues>
            4.3913221359252930e-01 -2.9890456795692444e-01</leafValues></_>
        <_>
          <internalNodes>
            0 -1 129 -3.3176639117300510e-03</internalNodes>
          <leafValues>
            6.2710672616958618e-01 -2.1987994015216827e-01</leafValues></_>
        <_>
          <internalNodes>
            0 -1 286 5.4338132031261921e-03</internalNodes>
          <leafValues>
            -2.0827797055244446e-01 7.4385958909988403e-01</leafValues></_>
        <_>
          <internalNodes>
            0 -1 188 2.7233990840613842e-03</internalNodes>
          <leafValues>
            -2.4770040810108185e-01 5.5314475297927856e-01</leafValues></_>
        <_>
          <internalNodes>
            0 -1 615 -1.4380395878106356e-03</internalNodes>
          <leafValues>
            5.5423539876937866e-01 -2.2795936465263367e-01</leafValues></_>
        <_>
          <internalNodes>
            0 -1 164 7.3446804890409112e-05</internalNodes>
          <leafValues>
            1.7451463639736176e-01 -7.6090931892395020e-01</leafValues></_>
        <_>
          <internalNodes>
            0 -1 375 -3.5579665564000607e-04</internalNodes>
          <leafValues>
            4.7064626216888428e-01 -2.7323189377784729e-01</leafValues></_></weakClassifiers></_>
    <!-- stage 3 -->
    <_>
      <maxWeakCount>23</maxWeakCount>
      <stageThreshold>-7.8006309270858765e-01</stageThreshold>
      <weakClassifiers>
        <_>
          <internalNodes>
            0 -1 484 1.2559529568534344e-04</internalNodes>
          <leafValues>
            3.5953757166862488e-01 -6.3902437686920166e-01</leafValues></_>
        <_>
          <internalNodes>
            0 -1 215 4.3027594685554504e-02</internalNodes>
          <leafValues>
            -2.8771755099296570e-01 6.0803717374801636e-01</leafValues></_>
        <_>
          <internalNodes>
            0 -1 100 -1.2284735217690468e-02</internalNodes>
          <leafValues>
            3.8540726900100708e-01 -3.7091597914695740e-01</leafValues></_>
        <_>
          <internalNodes>
            0 -1 250 2.3225296288728714e-02</internalNodes>
          <leafValues>
            -1.7784088850021362e-01 6.3764065504074097e-01</leafValues></_>
        <_>
          <internalNodes>
            0 -1 647 1.1639705917332321e-05</internalNodes>
          <leafValues>
            -3.8084286451339722e-01 3.1470522284507751e-01</leafValues></_>
        <_>
          <internalNodes>
            0 -1 125 -8.3906883373856544e-03</internalNodes>
          <leafValues>
            7.0903944969177246e-01 -1.8934056162834167e-01</leafValues></_>
        <_>
          <internalNodes>
            0 -1 609 -2.4663878139108419e-04</internalNodes>
          <leafValues>
            -8.3336329460144043e-01 1.5871156752109528e-01</leafValues></_>
        <_>
          <internalNodes>
            0 -1 285 1.9266165792942047e-02</internalNodes>
          <leafValues>
            -1.2363812327384949e-01 9.5355433225631714e-01</leafValues></_>
        <_>
          <internalNodes>
            0 -1 247 -1.6878804308362305e-04</internalNodes>
          <leafValues>
            -8.2067793607711792e-01 1.6573984920978546e-01</leafValues></_>
        <_>
          <internalNodes>
            0 -1 36 -2.0721252076327801e-03</internalNodes>
          <leafValues>
            3.0587357282638550e-01 -3.9955413341522217e-01</leafValues></_>
        <_>
          <internalNodes>
            0 -1 111 3.3156429417431355e-03</internalNodes>
          <leafValues>
            -1.6490346193313599e-01 6.6317278146743774e-01</leafValues></_>
        <_>
          <internalNodes>
            0 -1 246 1.2030803191009909e-04</internalNodes>
          <leafValues>
            1.8907625973224640e-01 -6.2663650512695312e-01</leafValues></_>
        <_>
          <internalNodes>
            0 -1 390 -1.7197555280290544e-05</internalNodes>
          <leafValues>
            3.4038990736007690e-01 -3.3093914389610291e-01</leafValues></_>
        <_>
          <internalNodes>
            0 -1 108 -1.7631657421588898e-02</internalNodes>
          <leafValues>
            5.5872070789337158e-01 -1.7973074316978455e-01</leafValues></_>
        <_>
          <internalNodes>
            0 -1 54 1.9395668641664088e-04</internalNodes>
          <leafValues>
            1.7271766066551208e-01 -6.4787369966506958e-01</leafValues></_>
        <_>
          <internalNodes>
            0 -1 601 7.5370138511061668e-03</internalNodes>
          <leafValues>
            -2.8784969449043274e-01 3.7955716252326965e-01</leafValues></_>
        <_>
          <internalNodes>
            0 -1 558 -2.4764433037489653e-03</internalNodes>
          <leafValues>
            -7.0778471231460571e-01 1.6139325499534607e-01</leafValues></_>
        <_>
          <internalNodes>
            0 -1 336 -5.7094679214060307e-03</internalNodes>
          <leafValues>
            4.0018540620803833e-01 -2.6332971453666687e-01</leafValues></_>
        <_>
          <internalNodes>
            0 -1 222 -8.7041477672755718e-04</internalNodes>
          <leafValues>
            5.5000400543212891e-01 -2.0841398835182190e-01</leafValues></_>
        <_>
          <internalNodes>
            0 -1 527 -4.2345849797129631e-03</internalNodes>
          <leafValues>
            4.4965422153472900e-01 -2.0870801806449890e-01</leafValues></_>
        <_>
          <internalNodes>
            0 -1 553 -1.7214979743584991e-04</internalNodes>
          <leafValues>
            -6.9845789670944214e-01 1.5299020707607269e-01</leafValues></_>
        <_>
          <internalNodes>
            0 -1 444 -1.0428697351017036e-05</internalNodes>
          <leafValues>
            2.9074421525001526e-01 -3.3170828223228455e-01</leafValues></_>
        <_>
          <internalNodes>
            0 -1 343 1.3746839613304473e-05</internalNodes>
          <leafValues>
            -3.0317899584770203e-01 2.9969778656959534e-01</leafValues></_></weakClassifiers></_>
    <!-- stage 4 -->
    <_>
      <maxWeakCount>22</maxWeakCount>
      <stageThreshold>-8.0674117803573608e-01</stageThreshold>
      <weakClassifiers>
        <_>
          <internalNodes>
            0 -1 617 -2.1233514416962862e-04</internalNodes>
          <leafValues>
            -8.3251231908798218e-01 4.0253749489784241e-01</leafValues></_>
        <_>
          <internalNodes>
            0 -1 312 -1.2864211201667786e-01</internalNodes>
          <leafValues>
            5.1152718067169189e-01 -3.5331150889396667e-01</leafValues></_>
        <_>
          <internalNodes>
            0 -1 553 1.6236903320532292e-04</internalNodes>
          <leafValues>
            2.2532288730144501e-01 -7.8652793169021606e-01</leafValues></_>
        <_>
          <internalNodes>
            0 -1 49 -3.2656654715538025e-02</internalNodes>
          <leafValues>
            5.1193755865097046e-01 -3.5939127206802368e-01</leafValues></_>
        <_>
          <internalNodes>
            0 -1 534 1.2790961773134768e-04</internalNodes>
          <leafValues>
            1.8605181574821472e-01 -7.7788257598876953e-01</leafValues></_>
        <_>
          <internalNodes>
            0 -1 201 -3.3981158048845828e-04</internalNodes>
          <leafValues>
            -8.0233877897262573e-01 1.5281456708908081e-01</leafValues></_>
        <_>
          <internalNodes>
            0 -1 272 -6.5814718604087830e-02</internalNodes>
          <leafValues>
            6.8246597051620483e-01 -2.1065202355384827e-01</leafValues></_>
        <_>
          <internalNodes>
            0 -1 144 6.2241449952125549e-02</internalNodes>
          <leafValues>
            -2.1048049628734589e-01 5.4141551256179810e-01</leafValues></_>
        <_>
          <internalNodes>
            0 -1 80 -4.0717227420827840e-06</internalNodes>
          <leafValues>
            3.3687549829483032e-01 -3.9102509617805481e-01</leafValues></_>
        <_>
          <internalNodes>
            0 -1 63 -9.0626537799835205e-02</internalNodes>
          <leafValues>
            6.1355119943618774e-01 -1.9439920783042908e-01</leafValues></_>
        <_>
          <internalNodes>
            0 -1 535 -5.3355013951659203e-03</internalNodes>
          <leafValues>
            5.1893901824951172e-01 -2.0594407618045807e-01</leafValues></_>
        <_>
          <internalNodes>
            0 -1 637 -5.4437108337879181e-04</internalNodes>
          <leafValues>
            4.4750034809112549e-01 -2.3265746235847473e-01</leafValues></_>
        <_>
          <internalNodes>
            0 -1 313 -3.9958208799362183e-02</internalNodes>
          <leafValues>
            6.3906234502792358e-01 -1.8114247918128967e-01</leafValues></_>
        <_>
          <internalNodes>
            0 -1 483 -1.2587741366587579e-04</internalNodes>
          <leafValues>
            -7.5283300876617432e-01 1.6172985732555389e-01</leafValues></_>
        <_>
          <internalNodes>
            0 -1 5 -1.3419360853731632e-02</internalNodes>
          <leafValues>
            5.5050629377365112e-01 -2.4437394738197327e-01</leafValues></_>
        <_>
          <internalNodes>
            0 -1 199 7.9778180224820971e-04</internalNodes>
          <leafValues>
            1.6663648188114166e-01 -7.6225566864013672e-01</leafValues></_>
        <_>
          <internalNodes>
            0 -1 2 1.4172156341373920e-02</internalNodes>
          <leafValues>
            -1.5645669400691986e-01 7.7214443683624268e-01</leafValues></_>
        <_>
          <internalNodes>
            0 -1 235 -1.6388236545026302e-03</internalNodes>
          <leafValues>
            -8.5064160823822021e-01 1.4871974289417267e-01</leafValues></_>
        <_>
          <internalNodes>
            0 -1 362 5.5652027949690819e-03</internalNodes>
          <leafValues>
            -2.2615948319435120e-01 5.7403743267059326e-01</leafValues></_>
        <_>
          <internalNodes>
            0 -1 202 -5.2074650302529335e-03</internalNodes>
          <leafValues>
            4.7380942106246948e-01 -2.5179082155227661e-01</leafValues></_>
        <_>
          <internalNodes>
            0 -1 282 2.4871778441593051e-04</internalNodes>
          <leafValues>
            1.6988331079483032e-01 -7.5256276130676270e-01</leafValues></_>
        <_>
          <internalNodes>
            0 -1 420 -1.3348578941076994e-03</internalNodes>
          <leafValues>
            5.4956954717636108e-01 -2.3639038205146790e-01</leafValues></_></weakClassifiers></_>
    <!-- stage 5 -->
    <_>
      <maxWeakCount>25</maxWeakCount>
      <stageThreshold>-4.2235070466995239e-01</stageThreshold>
      <weakClassifiers>
        <_>
          <internalNodes>
            0 -1 33 -1.2912403792142868e-02</internalNodes>
          <leafValues>
            5.4379564523696899e-01 -2.2605364024639130e-01</leafValues></_>
        <_>
          <internalNodes>
            0 -1 625 1.3791884994134307e-03</internalNodes>
          <leafValues>
            -3.0773729085922241e-01 4.4793149828910828e-01</leafValues></_>
        <_>
          <internalNodes>
            0 -1 4 7.8710630536079407e-02</internalNodes>
          <leafValues>
            -2.2364595532417297e-01 6.2235420942306519e-01</leafValues></_>
        <_>
          <internalNodes>
            0 -1 530 -5.6090293219313025e-04</internalNodes>
          <leafValues>
            4.6285203099250793e-01 -2.6934590935707092e-01</leafValues></_>
        <_>
          <internalNodes>
            0 -1 387 -6.2250876799225807e-03</internalNodes>
          <leafValues>
            3.8740849494934082e-01 -2.9374629259109497e-01</leafValues></_>
        <_>
          <internalNodes>
            0 -1 214 -3.5628024488687515e-03</internalNodes>
          <leafValues>
            7.5322937965393066e-01 -1.2633046507835388e-01</leafValues></_>
        <_>
          <internalNodes>
            0 -1 559 5.9051431890111417e-05</internalNodes>
          <leafValues>
            1.7600227892398834e-01 -6.8470406532287598e-01</leafValues></_>
        <_>
          <internalNodes>
            0 -1 651 -7.5354857835918665e-04</internalNodes>
          <leafValues>
            6.2066751718521118e-01 -1.8052227795124054e-01</leafValues></_>
        <_>
          <internalNodes>
            0 -1 124 -8.6527531966567039e-03</internalNodes>
          <leafValues>
            4.7222086787223816e-01 -2.3373520374298096e-01</leafValues></_>
        <_>
          <internalNodes>
            0 -1 27 -1.3011494884267449e-03</internalNodes>
          <leafValues>
            5.9904557466506958e-01 -1.4127936959266663e-01</leafValues></_>
        <_>
          <internalNodes>
            0 -1 20 9.3554367776960135e-04</internalNodes>
          <leafValues>
            -2.0112748444080353e-01 5.2290171384811401e-01</leafValues></_>
        <_>
          <internalNodes>
            0 -1 52 7.1667003794573247e-05</internalNodes>
          <leafValues>
            2.1815687417984009e-01 -5.8894282579421997e-01</leafValues></_>
        <_>
          <internalNodes>
            0 -1 528 -7.8712060349062085e-04</internalNodes>
          <leafValues>
            3.9748796820640564e-01 -3.0589509010314941e-01</leafValues></_>
        <_>
          <internalNodes>
            0 -1 361 -9.6010370180010796e-04</internalNodes>
          <leafValues>
            4.2808076739311218e-01 -2.7857547998428345e-01</leafValues></_>
        <_>
          <internalNodes>
            0 -1 554 2.9691018426092342e-05</internalNodes>
          <leafValues>
            2.0983326435089111e-01 -5.0919109582901001e-01</leafValues></_>
        <_>
          <internalNodes>
            0 -1 334 -1.7279755556955934e-03</internalNodes>
          <leafValues>
            5.6764078140258789e-01 -2.0319719612598419e-01</leafValues></_>
        <_>
          <internalNodes>
            0 -1 198 1.7913565970957279e-03</internalNodes>
          <leafValues>
            -1.6994585096836090e-01 5.2738130092620850e-01</leafValues></_>
        <_>
          <internalNodes>
            0 -1 460 -5.0987774739041924e-04</internalNodes>
          <leafValues>
            5.0189578533172607e-01 -2.1720774471759796e-01</leafValues></_>
        <_>
          <internalNodes>
            0 -1 249 6.2456563115119934e-02</internalNodes>
          <leafValues>
            -2.1900874376296997e-01 5.1034164428710938e-01</leafValues></_>
        <_>
          <internalNodes>
            0 -1 110 -3.0789664015173912e-03</internalNodes>
          <leafValues>
            4.6162778139114380e-01 -2.2722846269607544e-01</leafValues></_>
        <_>
          <internalNodes>
            0 -1 101 3.4728676837403327e-05</internalNodes>
          <leafValues>
            1.9033189117908478e-01 -5.5228757858276367e-01</leafValues></_>
        <_>
          <internalNodes>
            0 -1 620 -1.7839865759015083e-03</internalNodes>
          <leafValues>
            5.0113230943679810e-01 -2.2588782012462616e-01</leafValues></_>
        <_>
          <internalNodes>
            0 -1 465 -7.8085628047119826e-05</internalNodes>
          <leafValues>
            3.3912876248359680e-01 -3.0573293566703796e-01</leafValues></_>
        <_>
          <internalNodes>
            0 -1 543 -1.2528561986982822e-02</internalNodes>
          <leafValues>
            8.6163181066513062e-01 -1.1669497191905975e-01</leafValues></_>
        <_>
          <internalNodes>
            0 -1 544 1.4189146459102631e-03</internalNodes>
          <leafValues>
            -2.1258220076560974e-01 4.8675850033760071e-01</leafValues></_></weakClassifiers></_>
    <!-- stage 6 -->
    <_>
      <maxWeakCount>34</maxWeakCount>
      <stageThreshold>-7.8864103555679321e-01</stageThreshold>
      <weakClassifiers>
        <_>
          <internalNodes>
            0 -1 141 -1.0917123407125473e-02</internalNodes>
          <leafValues>
            4.1750359535217285e-01 -2.9758712649345398e-01</leafValues></_>
        <_>
          <internalNodes>
            0 -1 146 2.5407794117927551e-01</internalNodes>
          <leafValues>
            -1.1761949956417084e-01 7.1365511417388916e-01</leafValues></_>
        <_>
          <internalNodes>
            0 -1 353 -1.5984419733285904e-02</internalNodes>
          <leafValues>
            2.2270156443119049e-01 -3.5342639684677124e-01</leafValues></_>
        <_>
          <internalNodes>
            0 -1 17 -3.6040784325450659e-03</internalNodes>
          <leafValues>
            6.5691250562667847e-01 -1.3791346549987793e-01</leafValues></_>
        <_>
          <internalNodes>
            0 -1 83 -1.0838777598110028e-05</internalNodes>
          <leafValues>
            2.3432628810405731e-01 -3.3324733376502991e-01</leafValues></_>
        <_>
          <internalNodes>
            0 -1 510 5.8352621272206306e-04</internalNodes>
          <leafValues>
            1.7030860483646393e-01 -5.6657266616821289e-01</leafValues></_>
        <_>
          <internalNodes>
            0 -1 411 -1.3838929589837790e-05</internalNodes>
          <leafValues>
            2.5517031550407410e-01 -3.2553672790527344e-01</leafValues></_>
        <_>
          <internalNodes>
            0 -1 221 -2.0832404494285583e-02</internalNodes>
          <leafValues>
            -7.5744992494583130e-01 9.0948447585105896e-02</leafValues></_>
        <_>
          <internalNodes>
            0 -1 388 -3.0256556347012520e-03</internalNodes>
          <leafValues>
            4.6309676766395569e-01 -1.9153682887554169e-01</leafValues></_>
        <_>
          <internalNodes>
            0 -1 219 1.3990432955324650e-02</internalNodes>
          <leafValues>
            -9.2498682439327240e-02 7.8387635946273804e-01</leafValues></_>
        <_>
          <internalNodes>
            0 -1 476 -2.5465250946581364e-03</internalNodes>
          <leafValues>
            2.7790841460227966e-01 -2.8019598126411438e-01</leafValues></_>
        <_>
          <internalNodes>
            0 -1 462 -2.9093080665916204e-03</internalNodes>
          <leafValues>
            5.4351121187210083e-01 -1.3635620474815369e-01</leafValues></_>
        <_>
          <internalNodes>
            0 -1 40 -4.6151936054229736e-02</internalNodes>
          <leafValues>
            5.2050328254699707e-01 -1.4296865463256836e-01</leafValues></_>
        <_>
          <internalNodes>
            0 -1 200 1.0834583372343332e-04</internalNodes>
          <leafValues>
            1.4522494375705719e-01 -5.3379696607589722e-01</leafValues></_>
        <_>
          <internalNodes>
            0 -1 240 7.3626369703561068e-04</internalNodes>
          <leafValues>
            -1.8908207118511200e-01 3.7889879941940308e-01</leafValues></_>
        <_>
          <internalNodes>
            0 -1 152 2.6399888098239899e-02</internalNodes>
          <leafValues>
            1.2021466344594955e-01 -7.5963312387466431e-01</leafValues></_>
        <_>
          <internalNodes>
            0 -1 223 1.3765054754912853e-03</internalNodes>
          <leafValues>
            7.8323334455490112e-02 -7.2698432207107544e-01</leafValues></_>
        <_>
          <internalNodes>
            0 -1 165 3.7134203012101352e-05</internalNodes>
          <leafValues>
            1.4573159813880920e-01 -4.5444250106811523e-01</leafValues></_>
        <_>
          <internalNodes>
            0 -1 217 -2.7805878780782223e-03</internalNodes>
          <leafValues>
            3.8533163070678711e-01 -1.8387022614479065e-01</leafValues></_>
        <_>
          <internalNodes>
            0 -1 7 2.0044586062431335e-01</internalNodes>
          <leafValues>
            -1.1582560837268829e-01 6.2453722953796387e-01</leafValues></_>
        <_>
          <internalNodes>
            0 -1 436 -1.3416251749731600e-04</internalNodes>
          <leafValues>
            2.8929504752159119e-01 -2.7440342307090759e-01</leafValues></_>
        <_>
          <internalNodes>
            0 -1 47 1.1176737025380135e-02</internalNodes>
          <leafValues>
            -2.3089076578617096e-01 3.5148641467094421e-01</leafValues></_>
        <_>
          <internalNodes>
            0 -1 194 5.5334153585135937e-03</internalNodes>
          <leafValues>
            -1.5261331200599670e-01 5.0764524936676025e-01</leafValues></_>
        <_>
          <internalNodes>
            0 -1 449 -2.4893861263990402e-03</internalNodes>
          <leafValues>
            5.0602394342422485e-01 -1.3487958908081055e-01</leafValues></_>
        <_>
          <internalNodes>
            0 -1 383 1.3392531313002110e-02</internalNodes>
          <leafValues>
            -1.1845122277736664e-01 6.3306945562362671e-01</leafValues></_>
        <_>
          <internalNodes>
            0 -1 668 4.7603988787159324e-04</internalNodes>
          <leafValues>
            1.3924030959606171e-01 -5.9625059366226196e-01</leafValues></_>
        <_>
          <internalNodes>
            0 -1 68 -2.8449632227420807e-03</internalNodes>
          <leafValues>
            3.2701054215431213e-01 -2.2766514122486115e-01</leafValues></_>
        <_>
          <internalNodes>
            0 -1 445 -4.1448483898420818e-06</internalNodes>
          <leafValues>
            2.4073465168476105e-01 -3.0916368961334229e-01</leafValues></_>
        <_>
          <internalNodes>
            0 -1 140 5.8689836412668228e-02</internalNodes>
          <leafValues>
            -1.0533860325813293e-01 7.3638576269149780e-01</leafValues></_>
        <_>
          <internalNodes>
            0 -1 623 -1.2740012607537210e-05</internalNodes>
          <leafValues>
            3.1967648863792419e-01 -2.6191204786300659e-01</leafValues></_>
        <_>
          <internalNodes>
            0 -1 71 -1.7255512066185474e-03</internalNodes>
          <leafValues>
            6.2413758039474487e-01 -1.1843249946832657e-01</leafValues></_>
        <_>
          <internalNodes>
            0 -1 541 7.4274215148761868e-04</internalNodes>
          <leafValues>
            1.3344919681549072e-01 -6.5347719192504883e-01</leafValues></_>
        <_>
          <internalNodes>
            0 -1 662 1.0797516442835331e-03</internalNodes>
          <leafValues>
            -3.6267682909965515e-01 2.0556944608688354e-01</leafValues></_>
        <_>
          <internalNodes>
            0 -1 328 7.8690447844564915e-04</internalNodes>
          <leafValues>
            1.5285332500934601e-01 -4.6838739514350891e-01</leafValues></_></weakClassifiers></_>
    <!-- stage 7 -->
    <_>
      <maxWeakCount>32</maxWeakCount>
      <stageThreshold>-6.5671736001968384e-01</stageThreshold>
      <weakClassifiers>
        <_>
          <internalNodes>
            0 -1 364 4.7546662390232086e-03</internalNodes>
          <leafValues>
            -4.4992744922637939e-02 5.5380576848983765e-01</leafValues></_>
        <_>
          <internalNodes>
            0 -1 251 -3.6490883212536573e-03</internalNodes>
          <leafValues>
            5.7198685407638550e-01 -1.6027872264385223e-01</leafValues></_>
        <_>
          <internalNodes>
            0 -1 400 -3.6255372688174248e-03</internalNodes>
          <leafValues>
            5.2071350812911987e-01 -2.1380223333835602e-01</leafValues></_>
        <_>
          <internalNodes>
            0 -1 8 -5.6262616999447346e-03</internalNodes>
          <leafValues>
            4.8539310693740845e-01 -1.7674468457698822e-01</leafValues></_>
        <_>
          <internalNodes>
            0 -1 416 2.8179548680782318e-03</internalNodes>
          <leafValues>
            -4.2660075426101685e-01 1.9620430469512939e-01</leafValues></_>
        <_>
          <internalNodes>
            0 -1 499 -9.7108545014634728e-04</internalNodes>
          <leafValues>
            4.3047353625297546e-01 -1.8852800130844116e-01</leafValues></_>
        <_>
          <internalNodes>
            0 -1 120 1.9764919125009328e-04</internalNodes>
          <leafValues>
            1.1027749627828598e-01 -6.6624152660369873e-01</leafValues></_>
        <_>
          <internalNodes>
            0 -1 21 -1.4728375244885683e-03</internalNodes>
          <leafValues>
            4.8722317814826965e-01 -1.6261449456214905e-01</leafValues></_>
        <_>
          <internalNodes>
            0 -1 592 4.3109916987305041e-06</internalNodes>
          <leafValues>
            -3.0626398324966431e-01 2.7289363741874695e-01</leafValues></_>
        <_>
          <internalNodes>
            0 -1 243 -1.5166586672421545e-04</internalNodes>
          <leafValues>
            -5.5631375312805176e-01 1.4542822539806366e-01</leafValues></_>
        <_>
          <internalNodes>
            0 -1 639 -2.6261346647515893e-04</internalNodes>
          <leafValues>
            5.2214014530181885e-01 -1.5340819954872131e-01</leafValues></_>
        <_>
          <internalNodes>
            0 -1 90 3.9067827165126801e-03</internalNodes>
          <leafValues>
            -1.9767096638679504e-01 4.3125176429748535e-01</leafValues></_>
        <_>
          <internalNodes>
            0 -1 503 7.8922646935097873e-05</internalNodes>
          <leafValues>
            1.2172450870275497e-01 -6.4311176538467407e-01</leafValues></_>
        <_>
          <internalNodes>
            0 -1 209 6.1323300004005432e-02</internalNodes>
          <leafValues>
            -1.2257740646600723e-01 6.3036864995956421e-01</leafValues></_>
        <_>
          <internalNodes>
            0 -1 271 -2.4800909683108330e-02</internalNodes>
          <leafValues>
            5.5839318037033081e-01 -1.4385288953781128e-01</leafValues></_>
        <_>
          <internalNodes>
            0 -1 39 -5.6287599727511406e-03</internalNodes>
          <leafValues>
            3.0292952060699463e-01 -2.5630238652229309e-01</leafValues></_>
        <_>
          <internalNodes>
            0 -1 636 9.1796985361725092e-04</internalNodes>
          <leafValues>
            -1.2386013567447662e-01 6.7472529411315918e-01</leafValues></_>
        <_>
          <internalNodes>
            0 -1 305 -2.9624663293361664e-03</internalNodes>
          <leafValues>
            5.4814654588699341e-01 -1.1452629417181015e-01</leafValues></_>
        <_>
          <internalNodes>
            0 -1 269 -3.2622404396533966e-03</internalNodes>
          <leafValues>
            4.2468261718750000e-01 -1.8198694288730621e-01</leafValues></_>
        <_>
          <internalNodes>
            0 -1 443 -1.7554912716150284e-02</internalNodes>
          <leafValues>
            6.3577359914779663e-01 -1.0525454580783844e-01</leafValues></_>
        <_>
          <internalNodes>
            0 -1 190 -9.8552498966455460e-03</internalNodes>
          <leafValues>
            -6.6222721338272095e-01 1.2201089411973953e-01</leafValues></_>
        <_>
          <internalNodes>
            0 -1 133 3.3994898200035095e-02</internalNodes>
          <leafValues>
            1.2980359792709351e-01 -6.5515995025634766e-01</leafValues></_>
        <_>
          <internalNodes>
            0 -1 156 8.7062414968386292e-04</internalNodes>
          <leafValues>
            -1.8231591582298279e-01 5.0431638956069946e-01</leafValues></_>
        <_>
          <internalNodes>
            0 -1 184 6.1073995311744511e-05</internalNodes>
          <leafValues>
            1.3693840801715851e-01 -6.5861523151397705e-01</leafValues></_>
        <_>
          <internalNodes>
            0 -1 158 -1.1855684715555981e-04</internalNodes>
          <leafValues>
            -3.1150129437446594e-01 2.5120645761489868e-01</leafValues></_>
        <_>
          <internalNodes>
            0 -1 179 -1.5538260049652308e-04</internalNodes>
          <leafValues>
            2.9329028725624084e-01 -2.6244372129440308e-01</leafValues></_>
        <_>
          <internalNodes>
            0 -1 568 -1.1296372395008802e-03</internalNodes>
          <leafValues>
            3.4113162755966187e-01 -2.1916216611862183e-01</leafValues></_>
        <_>
          <internalNodes>
            0 -1 486 -5.6088836572598666e-05</internalNodes>
          <leafValues>
            2.6984226703643799e-01 -2.9457777738571167e-01</leafValues></_>
        <_>
          <internalNodes>
            0 -1 268 -3.7700974644394591e-06</internalNodes>
          <leafValues>
            2.8692620992660522e-01 -2.9679527878761292e-01</leafValues></_>
        <_>
          <internalNodes>
            0 -1 567 -8.5839731618762016e-03</internalNodes>
          <leafValues>
            5.0008398294448853e-01 -1.5897406637668610e-01</leafValues></_>
        <_>
          <internalNodes>
            0 -1 300 2.9124736320227385e-03</internalNodes>
          <leafValues>
            -1.4310167729854584e-01 5.0063169002532959e-01</leafValues></_>
        <_>
          <internalNodes>
            0 -1 379 -1.6322269220836461e-04</internalNodes>
          <leafValues>
            -5.4436540603637695e-01 1.5783114731311798e-01</leafValues></_></weakClassifiers></_>
    <!-- stage 8 -->
    <_>
      <maxWeakCount>34</maxWeakCount>
      <stageThreshold>-7.2309142351150513e-01</stageThreshold>
      <weakClassifiers>
        <_>
          <internalNodes>
            0 -1 466 5.7666336942929775e-05</internalNodes>
          <leafValues>
            3.2541567087173462e-01 -4.1228070855140686e-01</leafValues></_>
        <_>
          <internalNodes>
            0 -1 475 7.6921736763324589e-05</internalNodes>
          <leafValues>
            1.3230231404304504e-01 -6.3362145423889160e-01</leafValues></_>
        <_>
          <internalNodes>
            0 -1 15 -9.2617999762296677e-03</internalNodes>
          <leafValues>
            4.2400902509689331e-01 -1.7865553498268127e-01</leafValues></_>
        <_>
          <internalNodes>
            0 -1 518 7.9668476246297359e-05</internalNodes>
          <leafValues>
            1.3340301811695099e-01 -5.2493202686309814e-01</leafValues></_>
        <_>
          <internalNodes>
            0 -1 66 8.7852915748953819e-04</internalNodes>
          <leafValues>
            -9.7587324678897858e-02 7.5683546066284180e-01</leafValues></_>
        <_>
          <internalNodes>
            0 -1 650 4.8320027417503297e-05</internalNodes>
          <leafValues>
            1.5381814539432526e-01 -5.0044751167297363e-01</leafValues></_>
        <_>
          <internalNodes>
            0 -1 629 2.4473318830132484e-02</internalNodes>
          <leafValues>
            1.1229138076305389e-01 -5.5352449417114258e-01</leafValues></_>
        <_>
          <internalNodes>
            0 -1 614 -5.7805964024737477e-04</internalNodes>
          <leafValues>
            1.9654539227485657e-01 -3.5425001382827759e-01</leafValues></_>
        <_>
          <internalNodes>
            0 -1 457 -3.5278825089335442e-04</internalNodes>
          <leafValues>
            4.6231827139854431e-01 -1.5427103638648987e-01</leafValues></_>
        <_>
          <internalNodes>
            0 -1 396 1.1984340846538544e-02</internalNodes>
          <leafValues>
            -1.0264395922422409e-01 8.2401502132415771e-01</leafValues></_>
        <_>
          <internalNodes>
            0 -1 584 1.3331210357137024e-04</internalNodes>
          <leafValues>
            1.6267268359661102e-01 -5.3038984537124634e-01</leafValues></_>
        <_>
          <internalNodes>
            0 -1 582 1.2456551194190979e-03</internalNodes>
          <leafValues>
            -1.9328260421752930e-01 4.6131205558776855e-01</leafValues></_>
        <_>
          <internalNodes>
            0 -1 471 -2.0724558271467686e-03</internalNodes>
          <leafValues>
            3.5253772139549255e-01 -2.1712663769721985e-01</leafValues></_>
        <_>
          <internalNodes>
            0 -1 299 -1.3078550808131695e-02</internalNodes>
          <leafValues>
            -8.7614905834197998e-01 8.0554679036140442e-02</leafValues></_>
        <_>
          <internalNodes>
            0 -1 97 5.1042728591710329e-04</internalNodes>
          <leafValues>
            -2.1637998521327972e-01 3.7920427322387695e-01</leafValues></_>
        <_>
          <internalNodes>
            0 -1 11 -4.4332025572657585e-03</internalNodes>
          <leafValues>
            5.5466741323471069e-01 -1.3360044360160828e-01</leafValues></_>
        <_>
          <internalNodes>
            0 -1 377 -1.7040239181369543e-03</internalNodes>
          <leafValues>
            4.8609587550163269e-01 -1.4847218990325928e-01</leafValues></_>
        <_>
          <internalNodes>
            0 -1 642 -1.6510896384716034e-03</internalNodes>
          <leafValues>
            5.4507386684417725e-01 -1.3976885378360748e-01</leafValues></_>
        <_>
          <internalNodes>
            0 -1 641 9.2324963770806789e-04</internalNodes>
          <leafValues>
            -1.3244631886482239e-01 6.5478807687759399e-01</leafValues></_>
        <_>
          <internalNodes>
            0 -1 247 5.5526579672005028e-05</internalNodes>
          <leafValues>
            1.7761410772800446e-01 -5.4763805866241455e-01</leafValues></_>
        <_>
          <internalNodes>
            0 -1 349 -1.6132339835166931e-02</internalNodes>
          <leafValues>
            3.8272681832313538e-01 -2.1375864744186401e-01</leafValues></_>
        <_>
          <internalNodes>
            0 -1 248 5.0871096551418304e-02</internalNodes>
          <leafValues>
            -1.8665271997451782e-01 5.2512639760971069e-01</leafValues></_>
        <_>
          <internalNodes>
            0 -1 649 -8.4198509284760803e-05</internalNodes>
          <leafValues>
            -6.5712523460388184e-01 1.4645075798034668e-01</leafValues></_>
        <_>
          <internalNodes>
            0 -1 267 -9.8065612837672234e-04</internalNodes>
          <leafValues>
            2.2275367379188538e-01 -3.4064716100692749e-01</leafValues></_>
        <_>
          <internalNodes>
            0 -1 112 -1.9624405540525913e-03</internalNodes>
          <leafValues>
            4.0563133358955383e-01 -1.9047917425632477e-01</leafValues></_>
        <_>
          <internalNodes>
            0 -1 326 4.0226959390565753e-04</internalNodes>
          <leafValues>
            -1.7910991609096527e-01 4.6661263704299927e-01</leafValues></_>
        <_>
          <internalNodes>
            0 -1 441 -4.3179476633667946e-03</internalNodes>
          <leafValues>
            3.9103937149047852e-01 -1.8404562771320343e-01</leafValues></_>
        <_>
          <internalNodes>
            0 -1 501 -1.0619349777698517e-01</internalNodes>
          <leafValues>
            8.4541392326354980e-01 -8.9424096047878265e-02</leafValues></_>
        <_>
          <internalNodes>
            0 -1 37 -2.5271243066526949e-04</internalNodes>
          <leafValues>
            4.8702135682106018e-01 -1.3382709026336670e-01</leafValues></_>
        <_>
          <internalNodes>
            0 -1 134 1.4355615712702274e-02</internalNodes>
          <leafValues>
            1.0105338692665100e-01 -7.8970903158187866e-01</leafValues></_>
        <_>
          <internalNodes>
            0 -1 563 1.5819909051060677e-02</internalNodes>
          <leafValues>
            -1.3387531042098999e-01 6.9631850719451904e-01</leafValues></_>
        <_>
          <internalNodes>
            0 -1 94 -1.0514550376683474e-03</internalNodes>
          <leafValues>
            5.1660346984863281e-01 -1.2107317149639130e-01</leafValues></_>
        <_>
          <internalNodes>
            0 -1 607 1.9560441432986408e-04</internalNodes>
          <leafValues>
            1.5104052424430847e-01 -4.6429970860481262e-01</leafValues></_>
        <_>
          <internalNodes>
            0 -1 521 2.1037701517343521e-03</internalNodes>
          <leafValues>
            1.7988640069961548e-01 -4.2840901017189026e-01</leafValues></_></weakClassifiers></_>
    <!-- stage 9 -->
    <_>
      <maxWeakCount>37</maxWeakCount>
      <stageThreshold>-7.1017897129058838e-01</stageThreshold>
      <weakClassifiers>
        <_>
          <internalNodes>
            0 -1 205 -1.0676049860194325e-03</internalNodes>
          <leafValues>
            4.0469208359718323e-01 -2.4742268025875092e-01</leafValues></_>
        <_>
          <internalNodes>
            0 -1 34 -3.0904974788427353e-02</internalNodes>
          <leafValues>
            3.0595862865447998e-01 -2.2410196065902710e-01</leafValues></_>
        <_>
          <internalNodes>
            0 -1 595 4.3955660657957196e-05</internalNodes>
          <leafValues>
            1.6000001132488251e-01 -4.6721208095550537e-01</leafValues></_>
        <_>
          <internalNodes>
            0 -1 616 4.8016384243965149e-04</internalNodes>
          <leafValues>
            1.2241577357053757e-01 -6.6371756792068481e-01</leafValues></_>
        <_>
          <internalNodes>
            0 -1 497 1.5011695213615894e-03</internalNodes>
          <leafValues>
            -1.8336850404739380e-01 4.7013869881629944e-01</leafValues></_>
        <_>
          <internalNodes>
            0 -1 163 1.1715156957507133e-02</internalNodes>
          <leafValues>
            -1.4212805032730103e-01 5.3282850980758667e-01</leafValues></_>
        <_>
          <internalNodes>
            0 -1 310 -2.7730097062885761e-03</internalNodes>
          <leafValues>
            4.3354821205139160e-01 -1.4712935686111450e-01</leafValues></_>
        <_>
          <internalNodes>
            0 -1 99 -3.4807548217941076e-05</internalNodes>
          <leafValues>
            2.2093741595745087e-01 -3.4621086716651917e-01</leafValues></_>
        <_>
          <internalNodes>
            0 -1 439 1.0595229454338551e-02</internalNodes>
          <leafValues>
            -1.4288920164108276e-01 5.4972940683364868e-01</leafValues></_>
        <_>
          <internalNodes>
            0 -1 552 8.8359651272185147e-05</internalNodes>
          <leafValues>
            -3.0545440316200256e-01 2.3818853497505188e-01</leafValues></_>
        <_>
          <internalNodes>
            0 -1 447 4.7403664211742580e-05</internalNodes>
          <leafValues>
            1.2467189878225327e-01 -5.4764539003372192e-01</leafValues></_>
        <_>
          <internalNodes>
            0 -1 419 -4.7138574882410467e-04</internalNodes>
          <leafValues>
            3.7482631206512451e-01 -2.1482494473457336e-01</leafValues></_>
        <_>
          <internalNodes>
            0 -1 70 3.6130461376160383e-04</internalNodes>
          <leafValues>
            -1.2033156305551529e-01 5.3028720617294312e-01</leafValues></_>
        <_>
          <internalNodes>
            0 -1 75 -2.1361980179790407e-04</internalNodes>
          <leafValues>
            4.6973228454589844e-01 -1.4627073705196381e-01</leafValues></_>
        <_>
          <internalNodes>
            0 -1 529 -3.8716927170753479e-02</internalNodes>
          <leafValues>
            -7.4672001600265503e-01 8.7964773178100586e-02</leafValues></_>
        <_>
          <internalNodes>
            0 -1 652 6.2982377130538225e-04</internalNodes>
          <leafValues>
            -1.4365342259407043e-01 5.0526708364486694e-01</leafValues></_>
        <_>
          <internalNodes>
            0 -1 175 -1.2097032740712166e-03</internalNodes>
          <leafValues>
            -7.4465352296829224e-01 1.1021724343299866e-01</leafValues></_>
        <_>
          <internalNodes>
            0 -1 67 -4.4682517647743225e-02</internalNodes>
          <leafValues>
            2.8655380010604858e-01 -2.4384531378746033e-01</leafValues></_>
        <_>
          <internalNodes>
            0 -1 206 -1.7234827391803265e-03</internalNodes>
          <leafValues>
            -5.2148449420928955e-01 1.2733165919780731e-01</leafValues></_>
        <_>
          <internalNodes>
            0 -1 218 -5.0638746470212936e-03</internalNodes>
          <leafValues>
            5.7341110706329346e-01 -1.2678550183773041e-01</leafValues></_>
        <_>
          <internalNodes>
            0 -1 86 -1.8815560906659812e-05</internalNodes>
          <leafValues>
            2.5265443325042725e-01 -2.8016546368598938e-01</leafValues></_>
        <_>
          <internalNodes>
            0 -1 315 2.1951309463474900e-05</internalNodes>
          <leafValues>
            -2.4878013134002686e-01 2.4926069378852844e-01</leafValues></_>
        <_>
          <internalNodes>
            0 -1 478 -5.9296318795531988e-05</internalNodes>
          <leafValues>
            2.2355051338672638e-01 -2.6520660519599915e-01</leafValues></_>
        <_>
          <internalNodes>
            0 -1 257 -6.5421722829341888e-03</internalNodes>
          <leafValues>
            7.0772039890289307e-01 -9.6918456256389618e-02</leafValues></_>
        <_>
          <internalNodes>
            0 -1 246 -9.9547287391033024e-05</internalNodes>
          <leafValues>
            -5.1550012826919556e-01 1.3914814591407776e-01</leafValues></_>
        <_>
          <internalNodes>
            0 -1 180 -1.8878951668739319e-02</internalNodes>
          <leafValues>
            8.6878830194473267e-01 -8.0360807478427887e-02</leafValues></_>
        <_>
          <internalNodes>
            0 -1 514 4.3625300750136375e-03</internalNodes>
          <leafValues>
            1.6785208880901337e-01 -4.0279337763786316e-01</leafValues></_>
        <_>
          <internalNodes>
            0 -1 580 3.3694007433950901e-03</internalNodes>
          <leafValues>
            -2.2549045085906982e-01 2.7339658141136169e-01</leafValues></_>
        <_>
          <internalNodes>
            0 -1 189 -1.4250678941607475e-03</internalNodes>
          <leafValues>
            -4.3414679169654846e-01 1.4963890612125397e-01</leafValues></_>
        <_>
          <internalNodes>
            0 -1 424 -6.6376000642776489e-02</internalNodes>
          <leafValues>
            -7.7641856670379639e-01 8.3278633654117584e-02</leafValues></_>
        <_>
          <internalNodes>
            0 -1 526 -7.5731636025011539e-04</internalNodes>
          <leafValues>
            3.6801201105117798e-01 -1.9174429774284363e-01</leafValues></_>
        <_>
          <internalNodes>
            0 -1 192 -1.2253273744136095e-03</internalNodes>
          <leafValues>
            -7.2758108377456665e-01 1.0050282627344131e-01</leafValues></_>
        <_>
          <internalNodes>
            0 -1 461 -2.9213847592473030e-03</internalNodes>
          <leafValues>
            3.5831499099731445e-01 -1.9261176884174347e-01</leafValues></_>
        <_>
          <internalNodes>
            0 -1 472 -2.1395005751401186e-03</internalNodes>
          <leafValues>
            4.3258565664291382e-01 -1.4369571208953857e-01</leafValues></_>
        <_>
          <internalNodes>
            0 -1 65 7.1453135460615158e-03</internalNodes>
          <leafValues>
            -1.3322220742702484e-01 4.9433863162994385e-01</leafValues></_>
        <_>
          <internalNodes>
            0 -1 561 -5.1251493394374847e-02</internalNodes>
          <leafValues>
            8.1984263658523560e-01 -7.6505243778228760e-02</leafValues></_>
        <_>
          <internalNodes>
            0 -1 562 -1.8090424418915063e-05</internalNodes>
          <leafValues>
            3.2125076651573181e-01 -2.0207263529300690e-01</leafValues></_></weakClassifiers></_>
    <!-- stage 10 -->
    <_>
      <maxWeakCount>41</maxWeakCount>
      <stageThreshold>-4.6730566024780273e-01</stageThreshold>
      <weakClassifiers>
        <_>
          <internalNodes>
            0 -1 55 -8.0987531691789627e-03</internalNodes>
          <leafValues>
            5.1707315444946289e-01 -4.8484846949577332e-02</leafValues></_>
        <_>
          <internalNodes>
            0 -1 109 7.3640704154968262e-02</internalNodes>
          <leafValues>
            -1.4031068980693817e-01 4.7241395711898804e-01</leafValues></_>
        <_>
          <internalNodes>
            0 -1 119 1.3353911228477955e-02</internalNodes>
          <leafValues>
            -2.2256548702716827e-01 2.9163351655006409e-01</leafValues></_>
        <_>
          <internalNodes>
            0 -1 289 -4.5516200363636017e-02</internalNodes>
          <leafValues>
            3.6069142818450928e-01 -1.7609384655952454e-01</leafValues></_>
        <_>
          <internalNodes>
            0 -1 446 9.1688838438130915e-05</internalNodes>
          <leafValues>
            1.6332978010177612e-01 -4.1209512948989868e-01</leafValues></_>
        <_>
          <internalNodes>
            0 -1 589 -6.1621423810720444e-03</internalNodes>
          <leafValues>
            1.9057293236255646e-01 -3.1118133664131165e-01</leafValues></_>
        <_>
          <internalNodes>
            0 -1 229 -4.1888977284543216e-04</internalNodes>
          <leafValues>
            1.8349176645278931e-01 -3.1642550230026245e-01</leafValues></_>
        <_>
          <internalNodes>
            0 -1 376 1.7564631998538971e-02</internalNodes>
          <leafValues>
            -4.5796282589435577e-02 9.1024303436279297e-01</leafValues></_>
        <_>
          <internalNodes>
            0 -1 262 2.2831817623227835e-03</internalNodes>
          <leafValues>
            1.1999093741178513e-01 -6.2936282157897949e-01</leafValues></_>
        <_>
          <internalNodes>
            0 -1 149 -2.4672658182680607e-03</internalNodes>
          <leafValues>
            5.2647763490676880e-01 -1.3895551860332489e-01</leafValues></_>
        <_>
          <internalNodes>
            0 -1 598 -2.5449630338698626e-03</internalNodes>
          <leafValues>
            5.0154191255569458e-01 -9.7619883716106415e-02</leafValues></_>
        <_>
          <internalNodes>
            0 -1 1 4.1252933442592621e-02</internalNodes>
          <leafValues>
            -1.3613353669643402e-01 4.6378585696220398e-01</leafValues></_>
        <_>
          <internalNodes>
            0 -1 255 -5.8792736381292343e-03</internalNodes>
          <leafValues>
            3.4262636303901672e-01 -1.8945708870887756e-01</leafValues></_>
        <_>
          <internalNodes>
            0 -1 374 -1.0114242322742939e-03</internalNodes>
          <leafValues>
            3.4704232215881348e-01 -1.6820754110813141e-01</leafValues></_>
        <_>
          <internalNodes>
            0 -1 303 -1.0243997676298022e-03</internalNodes>
          <leafValues>
            1.8752443790435791e-01 -3.3871155977249146e-01</leafValues></_>
        <_>
          <internalNodes>
            0 -1 586 4.2086271569132805e-03</internalNodes>
          <leafValues>
            9.5633603632450104e-02 -7.8178662061691284e-01</leafValues></_>
        <_>
          <internalNodes>
            0 -1 291 1.4047242701053619e-02</internalNodes>
          <leafValues>
            -1.0770197957754135e-01 6.2499058246612549e-01</leafValues></_>
        <_>
          <internalNodes>
            0 -1 260 -9.1576157137751579e-04</internalNodes>
          <leafValues>
            -7.0891022682189941e-01 8.7968811392784119e-02</leafValues></_>
        <_>
          <internalNodes>
            0 -1 493 -8.6644629482179880e-04</internalNodes>
          <leafValues>
            3.7863147258758545e-01 -1.6962358355522156e-01</leafValues></_>
        <_>
          <internalNodes>
            0 -1 653 -8.6576509056612849e-04</internalNodes>
          <leafValues>
            7.9770737886428833e-01 -7.0115409791469574e-02</leafValues></_>
        <_>
          <internalNodes>
            0 -1 329 1.0338895022869110e-02</internalNodes>
          <leafValues>
            -5.5213432759046555e-02 7.9030835628509521e-01</leafValues></_>
        <_>
          <internalNodes>
            0 -1 516 -1.8188182730227709e-04</internalNodes>
          <leafValues>
            2.1807029843330383e-01 -2.7901154756546021e-01</leafValues></_>
        <_>
          <internalNodes>
            0 -1 357 -1.8044371390715241e-03</internalNodes>
          <leafValues>
            3.0789452791213989e-01 -1.8278941512107849e-01</leafValues></_>
        <_>
          <internalNodes>
            0 -1 577 -9.0027239639312029e-04</internalNodes>
          <leafValues>
            -6.1707377433776855e-01 9.9434673786163330e-02</leafValues></_>
        <_>
          <internalNodes>
            0 -1 69 -8.8868360035121441e-04</internalNodes>
          <leafValues>
            3.6766064167022705e-01 -1.6007688641548157e-01</leafValues></_>
        <_>
          <internalNodes>
            0 -1 454 -2.2644344717264175e-03</internalNodes>
          <leafValues>
            5.8597159385681152e-01 -1.1531646549701691e-01</leafValues></_>
        <_>
          <internalNodes>
            0 -1 606 1.5142695337999612e-04</internalNodes>
          <leafValues>
            -2.2589409351348877e-01 2.8658577799797058e-01</leafValues></_>
        <_>
          <internalNodes>
            0 -1 508 2.3911034077173099e-05</internalNodes>
          <leafValues>
            1.6335478425025940e-01 -4.3431925773620605e-01</leafValues></_>
        <_>
          <internalNodes>
            0 -1 363 -1.7875782214105129e-03</internalNodes>
          <leafValues>
            4.7610580921173096e-01 -1.3226771354675293e-01</leafValues></_>
        <_>
          <internalNodes>
            0 -1 403 8.4095052443444729e-04</internalNodes>
          <leafValues>
            2.3786239326000214e-01 -2.6231980323791504e-01</leafValues></_>
        <_>
          <internalNodes>
            0 -1 348 -1.4772222493775189e-04</internalNodes>
          <leafValues>
            3.1267923116683960e-01 -2.0727869868278503e-01</leafValues></_>
        <_>
          <internalNodes>
            0 -1 417 -4.5453454367816448e-03</internalNodes>
          <leafValues>
            -8.5031914710998535e-01 8.0282360315322876e-02</leafValues></_>
        <_>
          <internalNodes>
            0 -1 470 -8.2213848829269409e-02</internalNodes>
          <leafValues>
            -9.4331169128417969e-01 4.9967452883720398e-02</leafValues></_>
        <_>
          <internalNodes>
            0 -1 225 1.4568649930879474e-05</internalNodes>
          <leafValues>
            -2.4172508716583252e-01 2.9043811559677124e-01</leafValues></_>
        <_>
          <internalNodes>
            0 -1 507 2.0000744611024857e-02</internalNodes>
          <leafValues>
            -8.6533628404140472e-02 7.4996882677078247e-01</leafValues></_>
        <_>
          <internalNodes>
            0 -1 496 4.3022511817980558e-05</internalNodes>
          <leafValues>
            1.5262864530086517e-01 -5.2893310785293579e-01</leafValues></_>
        <_>
          <internalNodes>
            0 -1 308 1.6818823292851448e-02</internalNodes>
          <leafValues>
            -1.2587219476699829e-01 5.9754306077957153e-01</leafValues></_>
        <_>
          <internalNodes>
            0 -1 292 1.7682542093098164e-03</internalNodes>
          <leafValues>
            1.6010467708110809e-01 -4.9418830871582031e-01</leafValues></_>
        <_>
          <internalNodes>
            0 -1 421 -3.3342321403324604e-03</internalNodes>
          <leafValues>
            -7.4256491661071777e-01 7.7004060149192810e-02</leafValues></_>
        <_>
          <internalNodes>
            0 -1 430 2.6265345513820648e-04</internalNodes>
          <leafValues>
            -2.4687793850898743e-01 2.9278066754341125e-01</leafValues></_>
        <_>
          <internalNodes>
            0 -1 407 -4.3730782344937325e-03</internalNodes>
          <leafValues>
            4.1781154274940491e-01 -1.5938608348369598e-01</leafValues></_></weakClassifiers></_>
    <!-- stage 11 -->
    <_>
      <maxWeakCount>40</maxWeakCount>
      <stageThreshold>-6.2401568889617920e-01</stageThreshold>
      <weakClassifiers>
        <_>
          <internalNodes>
            0 -1 139 4.6766607556492090e-04</internalNodes>
          <leafValues>
            2.7645787596702576e-01 -5.2777779102325439e-01</leafValues></_>
        <_>
          <internalNodes>
            0 -1 368 1.0953951627016068e-02</internalNodes>
          <leafValues>
            -1.1480939388275146e-01 5.8250939846038818e-01</leafValues></_>
        <_>
          <internalNodes>
            0 -1 82 2.8976678731851280e-04</internalNodes>
          <leafValues>
            1.6333273053169250e-01 -4.3419474363327026e-01</leafValues></_>
        <_>
          <internalNodes>
            0 -1 432 6.2931282445788383e-03</internalNodes>
          <leafValues>
            -3.6526784300804138e-01 1.9605425000190735e-01</leafValues></_>
        <_>
          <internalNodes>
            0 -1 41 -3.1779837445355952e-04</internalNodes>
          <leafValues>
            1.1733859032392502e-01 -4.1460090875625610e-01</leafValues></_>
        <_>
          <internalNodes>
            0 -1 648 -7.3898799018934369e-04</internalNodes>
          <leafValues>
            3.6387479305267334e-01 -1.8710346519947052e-01</leafValues></_>
        <_>
          <internalNodes>
            0 -1 575 1.2648903066292405e-04</internalNodes>
          <leafValues>
            9.6752807497978210e-02 -6.0496687889099121e-01</leafValues></_>
        <_>
          <internalNodes>
            0 -1 143 -2.3257229477167130e-02</internalNodes>
          <leafValues>
            4.2327004671096802e-01 -1.3375402987003326e-01</leafValues></_>
        <_>
          <internalNodes>
            0 -1 148 -2.5496265152469277e-04</internalNodes>
          <leafValues>
            4.6700891852378845e-01 -1.1092688888311386e-01</leafValues></_>
        <_>
          <internalNodes>
            0 -1 548 -5.1592511590570211e-04</internalNodes>
          <leafValues>
            5.3201609849929810e-01 -1.0735249519348145e-01</leafValues></_>
        <_>
          <internalNodes>
            0 -1 564 -1.0658325627446175e-03</internalNodes>
          <leafValues>
            -7.3999625444412231e-01 7.2693482041358948e-02</leafValues></_>
        <_>
          <internalNodes>
            0 -1 500 -9.1422283730935305e-05</internalNodes>
          <leafValues>
            2.3167593777179718e-01 -2.6781529188156128e-01</leafValues></_>
        <_>
          <internalNodes>
            0 -1 633 -2.6074205379700288e-05</internalNodes>
          <leafValues>
            -5.1558637619018555e-01 1.2263423204421997e-01</leafValues></_>
        <_>
          <internalNodes>
            0 -1 611 -8.3721926785074174e-05</internalNodes>
          <leafValues>
            3.2195800542831421e-01 -1.8826602399349213e-01</leafValues></_>
        <_>
          <internalNodes>
            0 -1 302 4.9894826952368021e-04</internalNodes>
          <leafValues>
            1.3578329980373383e-01 -4.3035492300987244e-01</leafValues></_>
        <_>
          <internalNodes>
            0 -1 492 -4.1369600221514702e-03</internalNodes>
          <leafValues>
            5.0320053100585938e-01 -1.1994273215532303e-01</leafValues></_>
        <_>
          <internalNodes>
            0 -1 77 -8.2189254462718964e-02</internalNodes>
          <leafValues>
            4.8782721161842346e-01 -1.2053862214088440e-01</leafValues></_>
        <_>
          <internalNodes>
            0 -1 137 3.1267393380403519e-02</internalNodes>
          <leafValues>
            -7.1696095168590546e-02 7.8418695926666260e-01</leafValues></_>
        <_>
          <internalNodes>
            0 -1 371 -1.9347842317074537e-03</internalNodes>
          <leafValues>
            4.7403627634048462e-01 -1.2133321166038513e-01</leafValues></_>
        <_>
          <internalNodes>
            0 -1 431 3.7044543772935867e-02</internalNodes>
          <leafValues>
            -9.9115803837776184e-02 6.9631230831146240e-01</leafValues></_>
        <_>
          <internalNodes>
            0 -1 220 8.3527266979217529e-03</internalNodes>
          <leafValues>
            1.1189566552639008e-01 -5.9443873167037964e-01</leafValues></_>
        <_>
          <internalNodes>
            0 -1 447 3.9021404518280178e-05</internalNodes>
          <leafValues>
            1.1931249499320984e-01 -4.8645102977752686e-01</leafValues></_>
        <_>
          <internalNodes>
            0 -1 0 -4.1855615563690662e-04</internalNodes>
          <leafValues>
            -5.1862919330596924e-01 1.1707296222448349e-01</leafValues></_>
        <_>
          <internalNodes>
            0 -1 127 -1.3189463876187801e-02</internalNodes>
          <leafValues>
            7.6741766929626465e-01 -8.1164844334125519e-02</leafValues></_>
        <_>
          <internalNodes>
            0 -1 332 -8.0360026913695037e-05</internalNodes>
          <leafValues>
            2.5843819975852966e-01 -2.3015102744102478e-01</leafValues></_>
        <_>
          <internalNodes>
            0 -1 404 -9.7773701418191195e-04</internalNodes>
          <leafValues>
            1.7445620894432068e-01 -3.4647735953330994e-01</leafValues></_>
        <_>
          <internalNodes>
            0 -1 79 3.8834294537082314e-04</internalNodes>
          <leafValues>
            9.8441287875175476e-02 -5.8864891529083252e-01</leafValues></_>
        <_>
          <internalNodes>
            0 -1 480 2.6513140182942152e-03</internalNodes>
          <leafValues>
            -1.3136789202690125e-01 5.2274793386459351e-01</leafValues></_>
        <_>
          <internalNodes>
            0 -1 626 8.1429643614683300e-06</internalNodes>
          <leafValues>
            -2.4579869210720062e-01 2.6372686028480530e-01</leafValues></_>
        <_>
          <internalNodes>
            0 -1 84 -1.1173140956088901e-03</internalNodes>
          <leafValues>
            2.2523514926433563e-01 -2.9559794068336487e-01</leafValues></_>
        <_>
          <internalNodes>
            0 -1 372 -1.0490929707884789e-02</internalNodes>
          <leafValues>
            4.1407626867294312e-01 -1.7182293534278870e-01</leafValues></_>
        <_>
          <internalNodes>
            0 -1 380 -6.8550981814041734e-04</internalNodes>
          <leafValues>
            4.3583482503890991e-01 -1.5068586170673370e-01</leafValues></_>
        <_>
          <internalNodes>
            0 -1 405 1.8055278342217207e-03</internalNodes>
          <leafValues>
            -1.6563637554645538e-01 3.7828043103218079e-01</leafValues></_>
        <_>
          <internalNodes>
            0 -1 87 8.6143234511837363e-05</internalNodes>
          <leafValues>
            1.2807106971740723e-01 -6.0917639732360840e-01</leafValues></_>
        <_>
          <internalNodes>
            0 -1 135 1.1643769685178995e-03</internalNodes>
          <leafValues>
            -1.6555160284042358e-01 4.1231176257133484e-01</leafValues></_>
        <_>
          <internalNodes>
            0 -1 160 -1.5129501662158873e-05</internalNodes>
          <leafValues>
            2.5553220510482788e-01 -2.5843182206153870e-01</leafValues></_>
        <_>
          <internalNodes>
            0 -1 585 -1.8804196733981371e-03</internalNodes>
          <leafValues>
            -4.0152281522750854e-01 1.5810889005661011e-01</leafValues></_>
        <_>
          <internalNodes>
            0 -1 367 5.6129526346921921e-03</internalNodes>
          <leafValues>
            -2.0913727581501007e-01 3.1864011287689209e-01</leafValues></_>
        <_>
          <internalNodes>
            0 -1 646 2.2614441695623100e-04</internalNodes>
          <leafValues>
            -1.7213070392608643e-01 3.8898921012878418e-01</leafValues></_>
        <_>
          <internalNodes>
            0 -1 191 9.3071634182706475e-04</internalNodes>
          <leafValues>
            1.5378879010677338e-01 -4.1441538929939270e-01</leafValues></_></weakClassifiers></_>
    <!-- stage 12 -->
    <_>
      <maxWeakCount>40</maxWeakCount>
      <stageThreshold>-5.5496728420257568e-01</stageThreshold>
      <weakClassifiers>
        <_>
          <internalNodes>
            0 -1 284 -4.5702882111072540e-02</internalNodes>
          <leafValues>
            3.0887573957443237e-01 -3.6000001430511475e-01</leafValues></_>
        <_>
          <internalNodes>
            0 -1 479 -2.0984676666557789e-04</internalNodes>
          <leafValues>
            1.9358836114406586e-01 -3.2267645001411438e-01</leafValues></_>
        <_>
          <internalNodes>
            0 -1 121 -3.3100871951319277e-04</internalNodes>
          <leafValues>
            -5.3944408893585205e-01 1.4875873923301697e-01</leafValues></_>
        <_>
          <internalNodes>
            0 -1 656 -9.3625928275287151e-04</internalNodes>
          <leafValues>
            5.3046166896820068e-01 -1.5299743413925171e-01</leafValues></_>
        <_>
          <internalNodes>
            0 -1 399 -1.2769359163939953e-03</internalNodes>
          <leafValues>
            6.1538839340209961e-01 -1.2974719703197479e-01</leafValues></_>
        <_>
          <internalNodes>
            0 -1 85 -3.0560595914721489e-03</internalNodes>
          <leafValues>
            -3.7295418977737427e-01 1.7740391194820404e-01</leafValues></_>
        <_>
          <internalNodes>
            0 -1 224 -2.2025918588042259e-03</internalNodes>
          <leafValues>
            -6.4776521921157837e-01 8.2312509417533875e-02</leafValues></_>
        <_>
          <internalNodes>
            0 -1 512 -6.0779997147619724e-03</internalNodes>
          <leafValues>
            -7.3761147260665894e-01 8.8632211089134216e-02</leafValues></_>
        <_>
          <internalNodes>
            0 -1 369 -5.2092960104346275e-03</internalNodes>
          <leafValues>
            3.9409989118576050e-01 -1.7105571925640106e-01</leafValues></_>
        <_>
          <internalNodes>
            0 -1 154 -2.3961492115631700e-04</internalNodes>
          <leafValues>
            2.6734536886215210e-01 -2.0903205871582031e-01</leafValues></_>
        <_>
          <internalNodes>
            0 -1 366 1.5542231267318130e-03</internalNodes>
          <leafValues>
            1.4028824865818024e-01 -4.0340715646743774e-01</leafValues></_>
        <_>
          <internalNodes>
            0 -1 181 2.3270689416676760e-04</internalNodes>
          <leafValues>
            -1.2444190680980682e-01 4.3879774212837219e-01</leafValues></_>
        <_>
          <internalNodes>
            0 -1 494 -9.3163266777992249e-02</internalNodes>
          <leafValues>
            -8.2149505615234375e-01 6.4515717327594757e-02</leafValues></_>
        <_>
          <internalNodes>
            0 -1 660 -3.6663601349573582e-05</internalNodes>
          <leafValues>
            -5.3053468465805054e-01 9.9807016551494598e-02</leafValues></_>
        <_>
          <internalNodes>
            0 -1 78 3.2744750380516052e-02</internalNodes>
          <leafValues>
            7.0932313799858093e-02 -7.6379585266113281e-01</leafValues></_>
        <_>
          <internalNodes>
            0 -1 25 4.9840169958770275e-04</internalNodes>
          <leafValues>
            -1.3470530509948730e-01 4.7904837131500244e-01</leafValues></_>
        <_>
          <internalNodes>
            0 -1 22 -6.2577880453318357e-04</internalNodes>
          <leafValues>
            4.2415431141853333e-01 -1.3961429893970490e-01</leafValues></_>
        <_>
          <internalNodes>
            0 -1 226 6.3724517822265625e-02</internalNodes>
          <leafValues>
            -1.1630313098430634e-01 5.0658655166625977e-01</leafValues></_>
        <_>
          <internalNodes>
            0 -1 296 3.5140637774020433e-03</internalNodes>
          <leafValues>
            1.3314940035343170e-01 -5.2670538425445557e-01</leafValues></_>
        <_>
          <internalNodes>
            0 -1 236 -3.1936876475811005e-03</internalNodes>
          <leafValues>
            2.1284976601600647e-01 -3.0489775538444519e-01</leafValues></_>
        <_>
          <internalNodes>
            0 -1 19 4.6121347695589066e-03</internalNodes>
          <leafValues>
            1.0048168152570724e-01 -6.2952381372451782e-01</leafValues></_>
        <_>
          <internalNodes>
            0 -1 425 9.7658310551196337e-05</internalNodes>
          <leafValues>
            2.4305815994739532e-01 -2.6839104294776917e-01</leafValues></_>
        <_>
          <internalNodes>
            0 -1 76 1.1348489206284285e-03</internalNodes>
          <leafValues>
            -1.6561287641525269e-01 3.5046026110649109e-01</leafValues></_>
        <_>
          <internalNodes>
            0 -1 540 -4.8816865310072899e-03</internalNodes>
          <leafValues>
            -7.4228543043136597e-01 7.9759448766708374e-02</leafValues></_>
        <_>
          <internalNodes>
            0 -1 311 -2.1668210625648499e-02</internalNodes>
          <leafValues>
            3.9254078269004822e-01 -1.5125937759876251e-01</leafValues></_>
        <_>
          <internalNodes>
            0 -1 142 1.7460416711401194e-04</internalNodes>
          <leafValues>
            1.0874291509389877e-01 -5.9487766027450562e-01</leafValues></_>
        <_>
          <internalNodes>
            0 -1 287 -2.5766640901565552e-03</internalNodes>
          <leafValues>
            5.4620772600173950e-01 -1.2103994935750961e-01</leafValues></_>
        <_>
          <internalNodes>
            0 -1 306 3.1953654251992702e-03</internalNodes>
          <leafValues>
            -1.2964196503162384e-01 4.8595497012138367e-01</leafValues></_>
        <_>
          <internalNodes>
            0 -1 485 -1.0972717776894569e-02</internalNodes>
          <leafValues>
            3.1143069267272949e-01 -1.9991871714591980e-01</leafValues></_>
        <_>
          <internalNodes>
            0 -1 628 3.6584928166121244e-03</internalNodes>
          <leafValues>
            -1.1484707146883011e-01 5.1344972848892212e-01</leafValues></_>
        <_>
          <internalNodes>
            0 -1 588 -1.8116827122867107e-03</internalNodes>
          <leafValues>
            3.0341136455535889e-01 -2.1807861328125000e-01</leafValues></_>
        <_>
          <internalNodes>
            0 -1 122 2.9924355912953615e-03</internalNodes>
          <leafValues>
            1.3550010323524475e-01 -4.4335368275642395e-01</leafValues></_>
        <_>
          <internalNodes>
            0 -1 418 -1.6347400378435850e-03</internalNodes>
          <leafValues>
            -4.9488243460655212e-01 1.2379134446382523e-01</leafValues></_>
        <_>
          <internalNodes>
            0 -1 422 -1.4310615370050073e-05</internalNodes>
          <leafValues>
            2.2342939674854279e-01 -2.9125910997390747e-01</leafValues></_>
        <_>
          <internalNodes>
            0 -1 351 5.7353556156158447e-02</internalNodes>
          <leafValues>
            -1.3056573271751404e-01 4.7293308377265930e-01</leafValues></_>
        <_>
          <internalNodes>
            0 -1 193 -7.0489579229615629e-05</internalNodes>
          <leafValues>
            3.6260294914245605e-01 -1.7817470431327820e-01</leafValues></_>
        <_>
          <internalNodes>
            0 -1 619 -7.7393557876348495e-04</internalNodes>
          <leafValues>
            3.9434647560119629e-01 -1.4371024072170258e-01</leafValues></_>
        <_>
          <internalNodes>
            0 -1 273 2.1757213398814201e-03</internalNodes>
          <leafValues>
            9.7653232514858246e-02 -6.5072607994079590e-01</leafValues></_>
        <_>
          <internalNodes>
            0 -1 531 -5.7332777942065150e-05</internalNodes>
          <leafValues>
            2.5611528754234314e-01 -2.4016226828098297e-01</leafValues></_>
        <_>
          <internalNodes>
            0 -1 571 1.0570060112513602e-04</internalNodes>
          <leafValues>
            1.1255692690610886e-01 -5.3279024362564087e-01</leafValues></_></weakClassifiers></_>
    <!-- stage 13 -->
    <_>
      <maxWeakCount>42</maxWeakCount>
      <stageThreshold>-5.6082439422607422e-01</stageThreshold>
      <weakClassifiers>
        <_>
          <internalNodes>
            0 -1 435 1.0886950418353081e-02</internalNodes>
          <leafValues>
            2.7578476071357727e-01 -3.7078651785850525e-01</leafValues></_>
        <_>
          <internalNodes>
            0 -1 281 -3.4419549629092216e-03</internalNodes>
          <leafValues>
            2.0391751825809479e-01 -2.8609061241149902e-01</leafValues></_>
        <_>
          <internalNodes>
            0 -1 98 1.9655202049762011e-04</internalNodes>
          <leafValues>
            1.6021543741226196e-01 -3.5038608312606812e-01</leafValues></_>
        <_>
          <internalNodes>
            0 -1 186 1.6146903857588768e-02</internalNodes>
          <leafValues>
            -1.2010478228330612e-01 5.1746010780334473e-01</leafValues></_>
        <_>
          <internalNodes>
            0 -1 322 -1.8086381256580353e-02</internalNodes>
          <leafValues>
            3.6494877934455872e-01 -1.7103296518325806e-01</leafValues></_>
        <_>
          <internalNodes>
            0 -1 612 -8.7189925834536552e-03</internalNodes>
          <leafValues>
            -5.7403606176376343e-01 1.0694487392902374e-01</leafValues></_>
        <_>
          <internalNodes>
            0 -1 551 -8.7053142488002777e-03</internalNodes>
          <leafValues>
            3.3003821969032288e-01 -1.6222269833087921e-01</leafValues></_>
        <_>
          <internalNodes>
            0 -1 537 -1.7526322335470468e-04</internalNodes>
          <leafValues>
            2.8774645924568176e-01 -1.8697649240493774e-01</leafValues></_>
        <_>
          <internalNodes>
            0 -1 339 -2.5126808322966099e-03</internalNodes>
          <leafValues>
            -7.9541009664535522e-01 5.4207388311624527e-02</leafValues></_>
        <_>
          <internalNodes>
            0 -1 316 -1.0238779708743095e-02</internalNodes>
          <leafValues>
            5.8362007141113281e-01 -8.8524132966995239e-02</leafValues></_>
        <_>
          <internalNodes>
            0 -1 659 8.1754282291512936e-05</internalNodes>
          <leafValues>
            1.3944731652736664e-01 -3.9658194780349731e-01</leafValues></_>
        <_>
          <internalNodes>
            0 -1 91 1.1210970114916563e-03</internalNodes>
          <leafValues>
            -1.3421697914600372e-01 4.0069934725761414e-01</leafValues></_>
        <_>
          <internalNodes>
            0 -1 261 -2.3692529648542404e-03</internalNodes>
          <leafValues>
            -6.8387228250503540e-01 1.0212139785289764e-01</leafValues></_>
        <_>
          <internalNodes>
            0 -1 72 1.0671322233974934e-03</internalNodes>
          <leafValues>
            -1.0727329552173615e-01 5.9610706567764282e-01</leafValues></_>
        <_>
          <internalNodes>
            0 -1 533 1.2556620640680194e-04</internalNodes>
          <leafValues>
            1.4727406203746796e-01 -4.2291662096977234e-01</leafValues></_>
        <_>
          <internalNodes>
            0 -1 517 2.3993011564016342e-03</internalNodes>
          <leafValues>
            9.5084100961685181e-02 -5.9113669395446777e-01</leafValues></_>
        <_>
          <internalNodes>
            0 -1 337 -1.1307605309411883e-03</internalNodes>
          <leafValues>
            4.0464743971824646e-01 -1.5446648001670837e-01</leafValues></_>
        <_>
          <internalNodes>
            0 -1 631 4.5664564822800457e-06</internalNodes>
          <leafValues>
            -3.2366070151329041e-01 1.8442475795745850e-01</leafValues></_>
        <_>
          <internalNodes>
            0 -1 602 8.0810636281967163e-03</internalNodes>
          <leafValues>
            -1.0275200754404068e-01 7.0671397447586060e-01</leafValues></_>
        <_>
          <internalNodes>
            0 -1 171 -2.4986924836412072e-04</internalNodes>
          <leafValues>
            4.6981880068778992e-01 -9.8671503365039825e-02</leafValues></_>
        <_>
          <internalNodes>
            0 -1 525 1.4920753240585327e-01</internalNodes>
          <leafValues>
            -9.7843572497367859e-02 6.1617994308471680e-01</leafValues></_>
        <_>
          <internalNodes>
            0 -1 515 -1.8925537005998194e-04</internalNodes>
          <leafValues>
            2.8168082237243652e-01 -2.1307918429374695e-01</leafValues></_>
        <_>
          <internalNodes>
            0 -1 654 1.4435150660574436e-03</internalNodes>
          <leafValues>
            -1.1090767383575439e-01 5.3687602281570435e-01</leafValues></_>
        <_>
          <internalNodes>
            0 -1 402 6.6160503774881363e-04</internalNodes>
          <leafValues>
            1.2403894960880280e-01 -5.3582245111465454e-01</leafValues></_>
        <_>
          <internalNodes>
            0 -1 547 3.1519346521236002e-05</internalNodes>
          <leafValues>
            1.2138121575117111e-01 -4.6794098615646362e-01</leafValues></_>
        <_>
          <internalNodes>
            0 -1 230 -1.4129488728940487e-02</internalNodes>
          <leafValues>
            -5.7261735200881958e-01 9.7151085734367371e-02</leafValues></_>
        <_>
          <internalNodes>
            0 -1 73 -5.0724006723612547e-04</internalNodes>
          <leafValues>
            3.4244930744171143e-01 -1.6940441727638245e-01</leafValues></_>
        <_>
          <internalNodes>
            0 -1 450 -1.0500568896532059e-03</internalNodes>
          <leafValues>
            3.7573891878128052e-01 -1.4686121046543121e-01</leafValues></_>
        <_>
          <internalNodes>
            0 -1 622 5.3702029399573803e-03</internalNodes>
          <leafValues>
            9.4568707048892975e-02 -6.4471495151519775e-01</leafValues></_>
        <_>
          <internalNodes>
            0 -1 459 -5.2095286082476377e-04</internalNodes>
          <leafValues>
            4.3955311179161072e-01 -1.6455258429050446e-01</leafValues></_>
        <_>
          <internalNodes>
            0 -1 573 4.8749078996479511e-04</internalNodes>
          <leafValues>
            -1.9756101071834564e-01 3.4176123142242432e-01</leafValues></_>
        <_>
          <internalNodes>
            0 -1 231 3.2005344983190298e-03</internalNodes>
          <leafValues>
            -9.9837958812713623e-02 6.3173991441726685e-01</leafValues></_>
        <_>
          <internalNodes>
            0 -1 207 -1.0971407755278051e-04</internalNodes>
          <leafValues>
            -3.3046403527259827e-01 1.8198332190513611e-01</leafValues></_>
        <_>
          <internalNodes>
            0 -1 597 -2.8051561675965786e-03</internalNodes>
          <leafValues>
            4.8814153671264648e-01 -1.3026921451091766e-01</leafValues></_>
        <_>
          <internalNodes>
            0 -1 555 -3.0816537328064442e-03</internalNodes>
          <leafValues>
            -8.6672866344451904e-01 7.4736192822456360e-02</leafValues></_>
        <_>
          <internalNodes>
            0 -1 18 -3.7915419787168503e-02</internalNodes>
          <leafValues>
            -9.0797626972198486e-01 5.4272428154945374e-02</leafValues></_>
        <_>
          <internalNodes>
            0 -1 440 -9.8956259898841381e-04</internalNodes>
          <leafValues>
            2.4015896022319794e-01 -2.4137070775032043e-01</leafValues></_>
        <_>
          <internalNodes>
            0 -1 234 1.3165538257453591e-04</internalNodes>
          <leafValues>
            -2.0415401458740234e-01 3.0144545435905457e-01</leafValues></_>
        <_>
          <internalNodes>
            0 -1 474 8.7390917542506941e-06</internalNodes>
          <leafValues>
            -2.8283208608627319e-01 2.1986663341522217e-01</leafValues></_>
        <_>
          <internalNodes>
            0 -1 258 2.0469101145863533e-03</internalNodes>
          <leafValues>
            1.6311627626419067e-01 -3.9079749584197998e-01</leafValues></_>
        <_>
          <internalNodes>
            0 -1 266 -2.1735753762186505e-05</internalNodes>
          <leafValues>
            -4.1108575463294983e-01 1.4473403990268707e-01</leafValues></_>
        <_>
          <internalNodes>
            0 -1 505 3.6508645862340927e-03</internalNodes>
          <leafValues>
            7.5303763151168823e-02 -7.7567577362060547e-01</leafValues></_></weakClassifiers></_>
    <!-- stage 14 -->
    <_>
      <maxWeakCount>44</maxWeakCount>
      <stageThreshold>-5.3870505094528198e-01</stageThreshold>
      <weakClassifiers>
        <_>
          <internalNodes>
            0 -1 325 1.2181199417682365e-04</internalNodes>
          <leafValues>
            -2.0000000298023224e-01 3.2533332705497742e-01</leafValues></_>
        <_>
          <internalNodes>
            0 -1 46 -4.5168274082243443e-03</internalNodes>
          <leafValues>
            2.0642901957035065e-01 -2.8911998867988586e-01</leafValues></_>
        <_>
          <internalNodes>
            0 -1 658 5.3433304856298491e-06</internalNodes>
          <leafValues>
            -2.9147291183471680e-01 2.0287920534610748e-01</leafValues></_>
        <_>
          <internalNodes>
            0 -1 24 1.1988868936896324e-04</internalNodes>
          <leafValues>
            -1.3176611065864563e-01 3.8063028454780579e-01</leafValues></_>
        <_>
          <internalNodes>
            0 -1 103 3.5392483696341515e-03</internalNodes>
          <leafValues>
            -1.7511725425720215e-01 3.6534675955772400e-01</leafValues></_>
        <_>
          <internalNodes>
            0 -1 48 1.7186102923005819e-03</internalNodes>
          <leafValues>
            7.7113933861255646e-02 -8.4620255231857300e-01</leafValues></_>
        <_>
          <internalNodes>
            0 -1 394 -4.0815193206071854e-03</internalNodes>
          <leafValues>
            4.9313318729400635e-01 -1.5906493365764618e-01</leafValues></_>
        <_>
          <internalNodes>
            0 -1 176 8.5757710039615631e-03</internalNodes>
          <leafValues>
            -7.7909857034683228e-02 5.0185376405715942e-01</leafValues></_>
        <_>
          <internalNodes>
            0 -1 298 1.5882182866334915e-02</internalNodes>
          <leafValues>
            8.6194872856140137e-02 -6.7225581407546997e-01</leafValues></_>
        <_>
          <internalNodes>
            0 -1 665 1.7699140880722553e-04</internalNodes>
          <leafValues>
            1.2827511131763458e-01 -4.4440254569053650e-01</leafValues></_>
        <_>
          <internalNodes>
            0 -1 359 -6.2976996414363384e-03</internalNodes>
          <leafValues>
            5.4010188579559326e-01 -1.1701383441686630e-01</leafValues></_>
        <_>
          <internalNodes>
            0 -1 556 1.8039933638647199e-04</internalNodes>
          <leafValues>
            -2.7232041954994202e-01 2.2194537520408630e-01</leafValues></_>
        <_>
          <internalNodes>
            0 -1 227 2.8755434323102236e-04</internalNodes>
          <leafValues>
            -2.4735012650489807e-01 2.3529706895351410e-01</leafValues></_>
        <_>
          <internalNodes>
            0 -1 613 -9.6046319231390953e-04</internalNodes>
          <leafValues>
            -5.2030235528945923e-01 1.1317699402570724e-01</leafValues></_>
        <_>
          <internalNodes>
            0 -1 579 5.9152152389287949e-03</internalNodes>
          <leafValues>
            -1.1984499543905258e-01 4.7248506546020508e-01</leafValues></_>
        <_>
          <internalNodes>
            0 -1 557 8.1430487625766546e-05</internalNodes>
          <leafValues>
            1.2893246114253998e-01 -4.1906815767288208e-01</leafValues></_>
        <_>
          <internalNodes>
            0 -1 370 -4.1665509343147278e-02</internalNodes>
          <leafValues>
            2.8760370612144470e-01 -1.9519613683223724e-01</leafValues></_>
        <_>
          <internalNodes>
            0 -1 187 -1.8331366591155529e-03</internalNodes>
          <leafValues>
            2.6445508003234863e-01 -2.2682984173297882e-01</leafValues></_>
        <_>
          <internalNodes>
            0 -1 448 -8.5025951266288757e-03</internalNodes>
          <leafValues>
            -5.4508680105209351e-01 1.0052113234996796e-01</leafValues></_>
        <_>
          <internalNodes>
            0 -1 452 1.8560072407126427e-02</internalNodes>
          <leafValues>
            -1.0673751682043076e-01 5.7200300693511963e-01</leafValues></_>
        <_>
          <internalNodes>
            0 -1 256 -3.5579351242631674e-04</internalNodes>
          <leafValues>
            2.6482900977134705e-01 -2.1676963567733765e-01</leafValues></_>
        <_>
          <internalNodes>
            0 -1 32 -4.6615190804004669e-02</internalNodes>
          <leafValues>
            -8.3403044939041138e-01 7.8277297317981720e-02</leafValues></_>
        <_>
          <internalNodes>
            0 -1 42 -5.1238344894954935e-05</internalNodes>
          <leafValues>
            1.7538245022296906e-01 -3.2054415345191956e-01</leafValues></_>
        <_>
          <internalNodes>
            0 -1 321 -1.3805604539811611e-03</internalNodes>
          <leafValues>
            3.3345803618431091e-01 -1.8480409681797028e-01</leafValues></_>
        <_>
          <internalNodes>
            0 -1 60 4.1052520275115967e-02</internalNodes>
          <leafValues>
            9.9522575736045837e-02 -6.4014279842376709e-01</leafValues></_>
        <_>
          <internalNodes>
            0 -1 591 7.8116863733157516e-05</internalNodes>
          <leafValues>
            1.0194400697946548e-01 -5.0669175386428833e-01</leafValues></_>
        <_>
          <internalNodes>
            0 -1 408 -2.3700627498328686e-03</internalNodes>
          <leafValues>
            3.7054544687271118e-01 -1.5544059872627258e-01</leafValues></_>
        <_>
          <internalNodes>
            0 -1 451 -3.1325398012995720e-03</internalNodes>
          <leafValues>
            3.4779012203216553e-01 -1.4502097666263580e-01</leafValues></_>
        <_>
          <internalNodes>
            0 -1 413 -5.7528955949237570e-05</internalNodes>
          <leafValues>
            -4.5987907052040100e-01 1.1933585256338120e-01</leafValues></_>
        <_>
          <internalNodes>
            0 -1 89 -9.8758459091186523e-02</internalNodes>
          <leafValues>
            5.6006288528442383e-01 -1.0255537927150726e-01</leafValues></_>
        <_>
          <internalNodes>
            0 -1 618 1.2922117093694396e-05</internalNodes>
          <leafValues>
            -1.8801584839820862e-01 2.8711310029029846e-01</leafValues></_>
        <_>
          <internalNodes>
            0 -1 385 9.8655568435788155e-03</internalNodes>
          <leafValues>
            8.2631975412368774e-02 -7.3065590858459473e-01</leafValues></_>
        <_>
          <internalNodes>
            0 -1 130 -7.5550363399088383e-03</internalNodes>
          <leafValues>
            -8.6010152101516724e-01 5.2500594407320023e-02</leafValues></_>
        <_>
          <internalNodes>
            0 -1 150 -1.5105793136171997e-04</internalNodes>
          <leafValues>
            2.8515276312828064e-01 -1.9192504882812500e-01</leafValues></_>
        <_>
          <internalNodes>
            0 -1 488 -5.7241041213274002e-02</internalNodes>
          <leafValues>
            -7.9329651594161987e-01 7.4539035558700562e-02</leafValues></_>
        <_>
          <internalNodes>
            0 -1 211 1.3775234110653400e-03</internalNodes>
          <leafValues>
            -1.0210432857275009e-01 6.0500222444534302e-01</leafValues></_>
        <_>
          <internalNodes>
            0 -1 522 -3.7223532795906067e-02</internalNodes>
          <leafValues>
            -6.4566498994827271e-01 9.6276141703128815e-02</leafValues></_>
        <_>
          <internalNodes>
            0 -1 280 -1.3479133485816419e-04</internalNodes>
          <leafValues>
            -4.6158146858215332e-01 1.0381644219160080e-01</leafValues></_>
        <_>
          <internalNodes>
            0 -1 536 -2.3244268959388137e-04</internalNodes>
          <leafValues>
            2.2290062904357910e-01 -2.5145837664604187e-01</leafValues></_>
        <_>
          <internalNodes>
            0 -1 96 2.7720178477466106e-03</internalNodes>
          <leafValues>
            1.4340968430042267e-01 -4.1969156265258789e-01</leafValues></_>
        <_>
          <internalNodes>
            0 -1 491 -2.2968152188695967e-04</internalNodes>
          <leafValues>
            2.8712239861488342e-01 -1.9860020279884338e-01</leafValues></_>
        <_>
          <internalNodes>
            0 -1 490 1.8182750791311264e-02</internalNodes>
          <leafValues>
            -8.4016881883144379e-02 6.3823825120925903e-01</leafValues></_>
        <_>
          <internalNodes>
            0 -1 481 7.6793367043137550e-05</internalNodes>
          <leafValues>
            1.4261884987354279e-01 -4.0510860085487366e-01</leafValues></_>
        <_>
          <internalNodes>
            0 -1 216 2.0208097994327545e-03</internalNodes>
          <leafValues>
            -7.2817444801330566e-02 8.2245987653732300e-01</leafValues></_></weakClassifiers></_>
    <!-- stage 15 -->
    <_>
      <maxWeakCount>41</maxWeakCount>
      <stageThreshold>-4.2508199810981750e-01</stageThreshold>
      <weakClassifiers>
        <_>
          <internalNodes>
            0 -1 123 1.6476694494485855e-02</internalNodes>
          <leafValues>
            1.5006821602582932e-02 5.0148367881774902e-01</leafValues></_>
        <_>
          <internalNodes>
            0 -1 309 -2.3751074913889170e-03</internalNodes>
          <leafValues>
            2.0246873795986176e-01 -2.5583600997924805e-01</leafValues></_>
        <_>
          <internalNodes>
            0 -1 228 -1.1817938648164272e-03</internalNodes>
          <leafValues>
            3.5824120044708252e-01 -1.5431340038776398e-01</leafValues></_>
        <_>
          <internalNodes>
            0 -1 643 1.1745312949642539e-03</internalNodes>
          <leafValues>
            -1.3405306637287140e-01 7.0723026990890503e-01</leafValues></_>
        <_>
          <internalNodes>
            0 -1 638 -8.9258735533803701e-04</internalNodes>
          <leafValues>
            4.2930471897125244e-01 -1.2519109249114990e-01</leafValues></_>
        <_>
          <internalNodes>
            0 -1 604 -9.9784001577063464e-06</internalNodes>
          <leafValues>
            2.4710501730442047e-01 -2.1085847914218903e-01</leafValues></_>
        <_>
          <internalNodes>
            0 -1 30 -2.2761975415050983e-03</internalNodes>
          <leafValues>
            1.8753021955490112e-01 -3.1061926484107971e-01</leafValues></_>
        <_>
          <internalNodes>
            0 -1 384 9.9899945780634880e-04</internalNodes>
          <leafValues>
            1.5431074798107147e-01 -4.5279082655906677e-01</leafValues></_>
        <_>
          <internalNodes>
            0 -1 172 3.0906181782484055e-03</internalNodes>
          <leafValues>
            -1.3082194328308105e-01 4.3206813931465149e-01</leafValues></_>
        <_>
          <internalNodes>
            0 -1 14 -6.8310147617012262e-04</internalNodes>
          <leafValues>
            2.7774572372436523e-01 -2.2107762098312378e-01</leafValues></_>
        <_>
          <internalNodes>
            0 -1 117 3.1531237065792084e-02</internalNodes>
          <leafValues>
            7.0067271590232849e-02 -7.7226507663726807e-01</leafValues></_>
        <_>
          <internalNodes>
            0 -1 392 6.7926768679171801e-05</internalNodes>
          <leafValues>
            1.3633036613464355e-01 -4.0554863214492798e-01</leafValues></_>
        <_>
          <internalNodes>
            0 -1 242 -6.4849690534174442e-03</internalNodes>
          <leafValues>
            3.8960930705070496e-01 -1.4645203948020935e-01</leafValues></_>
        <_>
          <internalNodes>
            0 -1 323 -4.1448319097980857e-04</internalNodes>
          <leafValues>
            -3.9735645055770874e-01 1.5383087098598480e-01</leafValues></_>
        <_>
          <internalNodes>
            0 -1 427 -9.2113576829433441e-03</internalNodes>
          <leafValues>
            5.5867987871170044e-01 -1.0280559211969376e-01</leafValues></_>
        <_>
          <internalNodes>
            0 -1 438 1.7179601127281785e-03</internalNodes>
          <leafValues>
            1.2836167216300964e-01 -4.5532235503196716e-01</leafValues></_>
        <_>
          <internalNodes>
            0 -1 279 3.3413484925404191e-04</internalNodes>
          <leafValues>
            -1.3897441327571869e-01 4.4041836261749268e-01</leafValues></_>
        <_>
          <internalNodes>
            0 -1 358 -5.8103259652853012e-04</internalNodes>
          <leafValues>
            -3.8973101973533630e-01 1.6108845174312592e-01</leafValues></_>
        <_>
          <internalNodes>
            0 -1 136 3.5590474726632237e-04</internalNodes>
          <leafValues>
            -1.7506228387355804e-01 3.2447651028633118e-01</leafValues></_>
        <_>
          <internalNodes>
            0 -1 178 1.2959766900166869e-04</internalNodes>
          <leafValues>
            -1.6218049824237823e-01 3.7080204486846924e-01</leafValues></_>
        <_>
          <internalNodes>
            0 -1 538 -5.1908483728766441e-03</internalNodes>
          <leafValues>
            7.0563650131225586e-01 -7.0559993386268616e-02</leafValues></_>
        <_>
          <internalNodes>
            0 -1 560 -2.8063899371773005e-03</internalNodes>
          <leafValues>
            2.6723518967628479e-01 -2.0504431426525116e-01</leafValues></_>
        <_>
          <internalNodes>
            0 -1 210 -2.9386734589934349e-02</internalNodes>
          <leafValues>
            6.4809578657150269e-01 -8.5944607853889465e-02</leafValues></_>
        <_>
          <internalNodes>
            0 -1 605 1.0123095853487030e-04</internalNodes>
          <leafValues>
            -1.8932090699672699e-01 3.0149829387664795e-01</leafValues></_>
        <_>
          <internalNodes>
            0 -1 335 1.2135969882365316e-04</internalNodes>
          <leafValues>
            -2.0392005145549774e-01 2.6972743868827820e-01</leafValues></_>
        <_>
          <internalNodes>
            0 -1 341 1.8121650442481041e-02</internalNodes>
          <leafValues>
            1.5589769184589386e-01 -4.0350207686424255e-01</leafValues></_>
        <_>
          <internalNodes>
            0 -1 157 1.1107337923021987e-04</internalNodes>
          <leafValues>
            -2.3236127197742462e-01 2.6989072561264038e-01</leafValues></_>
        <_>
          <internalNodes>
            0 -1 196 2.5831465609371662e-04</internalNodes>
          <leafValues>
            1.4933642745018005e-01 -3.9824971556663513e-01</leafValues></_>
        <_>
          <internalNodes>
